# ts bg_x bg_y bg_z ba_x ba_y ba_z
1525745865.012 0.000 0.000 0.000 0.000 0.000 0.000
1525745865.022 0.000 0.000 0.000 0.000 0.000 0.000
1525745865.032 0.000 0.000 0.000 0.000 0.000 0.000
1525745865.042 0.000 0.000 0.000 0.000 0.000 0.000
1525745865.052 0.000 0.000 0.000 0.000 0.000 0.000
1525745865.062 0.000 0.000 0.000 0.000 0.000 0.000
1525745865.072 0.000 0.000 0.000 0.000 0.000 0.000
1525745865.082 0.000 0.000 0.000 0.000 0.000 0.000
1525745865.092 0.000 0.000 0.000 0.000 0.000 0.000
1525745865.102 0.000 0.000 0.000 0.000 0.000 0.000
1525745865.112 0.000 0.000 0.000 0.000 0.000 0.000
1525745865.122 0.000 0.000 0.000 0.000 0.000 0.000
1525745865.132 0.000 0.000 0.000 0.000 0.000 0.000
1525745865.142 0.000 0.000 0.000 0.000 0.000 0.000
1525745865.152 0.000 0.000 0.000 0.000 0.000 0.000
1525745865.162 0.000 0.000 0.000 0.000 0.000 0.000
1525745865.172 0.000 0.000 0.000 0.000 0.000 0.000
1525745865.182 0.000 0.000 0.000 0.000 0.000 0.000
1525745865.192 0.000 0.000 0.000 0.000 0.000 0.000
1525745865.202 0.000 0.000 0.000 0.000 0.000 0.000
1525745865.212 0.000 0.000 0.000 0.000 0.000 0.000
1525745865.222 0.000 0.000 0.000 0.000 0.000 0.000
1525745865.232 0.000 0.000 0.000 0.000 0.000 0.000
1525745865.242 0.000 0.000 0.000 0.000 0.000 0.000
1525745865.252 0.000 0.000 0.000 0.000 0.000 0.000
1525745865.262 0.000 0.000 0.000 0.000 0.000 0.000
1525745865.272 0.000 0.000 0.000 0.000 0.000 0.000
1525745865.282 0.000 0.000 0.000 0.000 0.000 0.000
1525745865.292 0.000 0.000 0.000 0.000 0.000 0.000
1525745865.302 0.000 0.000 0.000 0.000 0.000 0.000
1525745865.312 0.000 0.000 0.000 0.000 0.000 0.000
1525745865.322 0.000 0.000 0.000 0.000 0.000 0.000
1525745865.332 0.000 0.000 0.000 0.000 0.000 0.000
1525745865.342 0.000 0.000 0.000 0.000 0.000 0.000
1525745865.352 0.000 0.000 0.000 0.000 0.000 0.000
1525745865.362 0.000 0.000 0.000 0.000 0.000 0.000
1525745865.372 0.000 0.000 0.000 0.000 0.000 0.000
1525745865.382 0.000 0.000 0.000 0.000 0.000 0.000
1525745865.392 0.000 0.000 0.000 0.000 0.000 0.000
1525745865.402 0.000 0.000 0.000 0.000 0.000 0.000
1525745865.412 0.000 0.000 0.000 0.000 0.000 0.000
1525745865.422 0.000 0.000 0.000 0.000 0.000 0.000
1525745865.432 0.000 0.000 0.000 0.000 0.000 0.000
1525745865.442 0.000 0.000 0.000 0.000 0.000 0.000
1525745865.452 0.000 0.000 0.000 0.000 0.000 0.000
1525745865.462 0.000 0.000 0.000 0.000 0.000 0.000
1525745865.472 0.000 0.000 0.000 0.000 0.000 0.000
1525745865.482 0.000 0.000 0.000 0.000 0.000 0.000
1525745865.492 0.000 0.000 0.000 0.000 0.000 0.000
1525745865.502 -0.000 -0.000 -0.000 0.000 -0.000 0.000
1525745865.512 -0.000 -0.000 -0.000 0.000 -0.000 0.000
1525745865.522 -0.000 -0.000 -0.000 0.000 -0.000 0.000
1525745865.532 -0.000 -0.000 -0.000 0.000 -0.000 0.000
1525745865.542 -0.000 -0.000 -0.000 0.000 -0.000 0.000
1525745865.552 -0.000 -0.000 -0.000 0.000 -0.000 0.000
1525745865.562 -0.000 -0.000 -0.000 0.000 -0.000 0.000
1525745865.572 -0.000 -0.000 -0.000 0.000 -0.000 0.000
1525745865.582 -0.000 -0.000 -0.000 0.000 -0.000 0.000
1525745865.592 -0.000 -0.000 -0.000 0.000 -0.000 0.000
1525745865.602 -0.000 -0.000 -0.000 0.000 -0.000 0.000
1525745865.612 -0.000 -0.000 -0.000 0.000 -0.000 0.000
1525745865.622 -0.000 -0.000 -0.000 0.000 -0.000 0.000
1525745865.632 -0.000 -0.000 -0.000 0.000 -0.000 0.000
1525745865.642 -0.000 -0.000 -0.000 0.000 -0.000 0.000
1525745865.652 -0.000 -0.000 -0.000 0.000 -0.000 0.000
1525745865.662 -0.000 0.000 0.000 0.000 -0.000 0.000
1525745865.672 -0.000 0.000 0.000 0.000 -0.000 0.000
1525745865.682 -0.000 0.000 0.000 0.000 -0.000 0.000
1525745865.692 -0.000 0.000 0.000 0.000 -0.000 0.000
1525745865.702 -0.000 0.000 0.000 0.000 -0.000 0.000
1525745865.712 -0.000 0.000 0.000 0.000 -0.000 -0.000
1525745865.722 -0.000 0.000 0.000 0.000 -0.000 -0.000
1525745865.732 -0.000 0.000 0.000 0.000 -0.000 -0.000
1525745865.742 -0.000 0.000 0.000 0.000 -0.000 -0.000
1525745865.752 -0.000 0.000 0.000 0.000 -0.000 -0.000
1525745865.762 -0.000 0.000 0.000 -0.000 -0.000 -0.000
1525745865.772 -0.000 0.000 0.000 -0.000 -0.000 -0.000
1525745865.782 -0.000 0.000 0.000 -0.000 -0.000 -0.000
1525745865.792 -0.000 0.000 0.000 -0.000 -0.000 -0.000
1525745865.802 -0.000 0.000 0.000 -0.000 -0.000 -0.000
1525745865.812 -0.000 0.000 0.000 -0.000 0.000 -0.001
1525745865.822 -0.000 0.000 0.000 -0.000 0.000 -0.001
1525745865.832 -0.000 0.000 0.000 -0.000 0.000 -0.001
1525745865.842 -0.000 0.000 0.000 -0.000 0.000 -0.001
1525745865.852 -0.000 0.000 0.000 -0.000 0.000 -0.001
1525745865.862 -0.000 -0.000 0.000 0.000 0.000 -0.001
1525745865.872 -0.000 -0.000 0.000 0.000 0.000 -0.001
1525745865.882 -0.000 -0.000 0.000 0.000 0.000 -0.001
1525745865.892 -0.000 -0.000 0.000 0.000 0.000 -0.001
1525745865.902 -0.000 -0.000 0.000 0.000 0.000 -0.001
1525745865.912 -0.000 -0.000 0.000 0.000 0.000 -0.001
1525745865.922 -0.000 -0.000 0.000 0.000 0.000 -0.001
1525745865.932 -0.000 -0.000 0.000 0.000 0.000 -0.001
1525745865.942 -0.000 -0.000 0.000 0.000 0.000 -0.001
1525745865.952 -0.000 -0.000 0.000 0.000 0.000 -0.001
1525745865.962 -0.000 -0.000 -0.000 0.000 0.000 -0.001
1525745865.972 -0.000 -0.000 -0.000 0.000 0.000 -0.001
1525745865.982 -0.000 -0.000 -0.000 0.000 0.000 -0.001
1525745865.992 -0.000 -0.000 -0.000 0.000 0.000 -0.001
1525745866.002 -0.000 -0.000 -0.000 0.000 0.000 -0.001
1525745866.012 -0.000 -0.000 -0.000 0.001 0.001 -0.001
1525745866.022 -0.000 -0.000 -0.000 0.001 0.001 -0.001
1525745866.032 -0.000 -0.000 -0.000 0.001 0.001 -0.001
1525745866.042 -0.000 -0.000 -0.000 0.001 0.001 -0.001
1525745866.052 -0.000 -0.000 -0.000 0.001 0.001 -0.001
1525745866.062 -0.000 -0.000 -0.000 0.001 0.001 -0.001
1525745866.072 -0.000 -0.000 -0.000 0.001 0.001 -0.001
1525745866.082 -0.000 -0.000 -0.000 0.001 0.001 -0.001
1525745866.092 -0.000 -0.000 -0.000 0.001 0.001 -0.001
1525745866.102 -0.000 -0.000 -0.000 0.001 0.001 -0.001
1525745866.112 -0.000 -0.000 -0.000 0.001 0.001 -0.001
1525745866.122 -0.000 -0.000 -0.000 0.001 0.001 -0.001
1525745866.132 -0.000 -0.000 -0.000 0.001 0.001 -0.001
1525745866.142 -0.000 -0.000 -0.000 0.001 0.001 -0.001
1525745866.152 -0.000 -0.000 -0.000 0.001 0.001 -0.001
1525745866.162 -0.000 -0.000 -0.000 0.001 0.001 -0.000
1525745866.172 -0.000 -0.000 -0.000 0.001 0.001 -0.000
1525745866.182 -0.000 -0.000 -0.000 0.001 0.001 -0.000
1525745866.192 -0.000 -0.000 -0.000 0.001 0.001 -0.000
1525745866.202 -0.000 -0.000 -0.000 0.001 0.001 -0.000
1525745866.212 -0.000 -0.000 -0.000 0.001 0.001 -0.001
1525745866.222 -0.000 -0.000 -0.000 0.001 0.001 -0.001
1525745866.232 -0.000 -0.000 -0.000 0.001 0.001 -0.001
1525745866.242 -0.000 -0.000 -0.000 0.001 0.001 -0.001
1525745866.252 -0.000 -0.000 -0.000 0.001 0.001 -0.001
1525745866.262 -0.000 0.000 0.000 -0.000 -0.000 -0.003
1525745866.272 -0.000 0.000 0.000 -0.000 -0.000 -0.003
1525745866.282 -0.000 0.000 0.000 -0.000 -0.000 -0.003
1525745866.292 -0.000 0.000 0.000 -0.000 -0.000 -0.003
1525745866.302 -0.000 0.000 0.000 -0.000 -0.000 -0.003
1525745866.312 -0.000 0.000 0.000 -0.001 -0.001 -0.007
1525745866.322 -0.000 0.000 0.000 -0.001 -0.001 -0.007
1525745866.332 -0.000 0.000 0.000 -0.001 -0.001 -0.007
1525745866.342 -0.000 0.000 0.000 -0.001 -0.001 -0.007
1525745866.352 -0.000 0.000 0.000 -0.001 -0.001 -0.007
1525745866.362 -0.000 0.000 0.000 -0.003 -0.003 -0.013
1525745866.372 -0.000 0.000 0.000 -0.003 -0.003 -0.013
1525745866.382 -0.000 0.000 0.000 -0.003 -0.003 -0.013
1525745866.392 -0.000 0.000 0.000 -0.003 -0.003 -0.013
1525745866.402 -0.000 0.000 0.000 -0.003 -0.003 -0.013
1525745866.412 -0.000 0.000 0.000 -0.005 -0.005 -0.023
1525745866.422 -0.000 0.000 0.000 -0.005 -0.005 -0.023
1525745866.432 -0.000 0.000 0.000 -0.005 -0.005 -0.023
1525745866.442 -0.000 0.000 0.000 -0.005 -0.005 -0.023
1525745866.452 -0.000 0.000 0.000 -0.005 -0.005 -0.023
1525745866.462 -0.000 0.000 0.000 -0.010 -0.008 -0.034
1525745866.472 -0.000 0.000 0.000 -0.010 -0.008 -0.034
1525745866.482 -0.000 0.000 0.000 -0.010 -0.008 -0.034
1525745866.492 -0.000 0.000 0.000 -0.010 -0.008 -0.034
1525745866.502 -0.000 0.000 0.000 -0.010 -0.008 -0.034
1525745866.512 -0.000 0.000 0.000 -0.013 -0.010 -0.052
1525745866.522 -0.000 0.000 0.000 -0.013 -0.010 -0.052
1525745866.532 -0.000 0.000 0.000 -0.013 -0.010 -0.052
1525745866.542 -0.000 0.000 0.000 -0.013 -0.010 -0.052
1525745866.552 -0.000 0.000 0.000 -0.013 -0.010 -0.052
1525745866.562 -0.000 0.000 0.000 -0.005 -0.006 -0.073
1525745866.572 -0.000 0.000 0.000 -0.005 -0.006 -0.073
1525745866.582 -0.000 0.000 0.000 -0.005 -0.006 -0.073
1525745866.592 -0.000 0.000 0.000 -0.005 -0.006 -0.073
1525745866.602 -0.000 0.000 0.000 -0.005 -0.006 -0.073
1525745866.612 -0.000 -0.000 -0.000 0.011 -0.002 -0.095
1525745866.622 -0.000 -0.000 -0.000 0.011 -0.002 -0.095
1525745866.632 -0.000 -0.000 -0.000 0.011 -0.002 -0.095
1525745866.642 -0.000 -0.000 -0.000 0.011 -0.002 -0.095
1525745866.652 -0.000 -0.000 -0.000 0.011 -0.002 -0.095
1525745866.662 -0.000 -0.000 -0.000 0.027 -0.001 -0.119
1525745866.672 -0.000 -0.000 -0.000 0.027 -0.001 -0.119
1525745866.682 -0.000 -0.000 -0.000 0.027 -0.001 -0.119
1525745866.692 -0.000 -0.000 -0.000 0.027 -0.001 -0.119
1525745866.702 -0.000 -0.000 -0.000 0.027 -0.001 -0.119
1525745866.712 -0.000 -0.000 -0.000 0.040 -0.005 -0.149
1525745866.722 -0.000 -0.000 -0.000 0.040 -0.005 -0.149
1525745866.732 -0.000 -0.000 -0.000 0.040 -0.005 -0.149
1525745866.742 -0.000 -0.000 -0.000 0.040 -0.005 -0.149
1525745866.752 -0.000 -0.000 -0.000 0.040 -0.005 -0.149
1525745866.762 -0.000 -0.000 -0.000 0.069 -0.025 -0.207
1525745866.772 -0.000 -0.000 -0.000 0.069 -0.025 -0.207
1525745866.782 -0.000 -0.000 -0.000 0.069 -0.025 -0.207
1525745866.792 -0.000 -0.000 -0.000 0.069 -0.025 -0.207
1525745866.802 -0.000 -0.000 -0.000 0.069 -0.025 -0.207
1525745866.812 -0.000 -0.000 -0.000 0.116 -0.060 -0.273
1525745866.822 -0.000 -0.000 -0.000 0.116 -0.060 -0.273
1525745866.832 -0.000 -0.000 -0.000 0.116 -0.060 -0.273
1525745866.842 -0.000 -0.000 -0.000 0.116 -0.060 -0.273
1525745866.852 -0.000 -0.000 -0.000 0.116 -0.060 -0.273
1525745866.862 -0.000 -0.000 -0.000 0.163 -0.101 -0.329
1525745866.872 -0.000 -0.000 -0.000 0.163 -0.101 -0.329
1525745866.882 -0.000 -0.000 -0.000 0.163 -0.101 -0.329
1525745866.892 -0.000 -0.000 -0.000 0.163 -0.101 -0.329
1525745866.902 -0.000 -0.000 -0.000 0.163 -0.101 -0.329
1525745866.912 -0.000 -0.000 -0.000 0.196 -0.136 -0.366
1525745866.922 -0.000 -0.000 -0.000 0.196 -0.136 -0.366
1525745866.932 -0.000 -0.000 -0.000 0.196 -0.136 -0.366
1525745866.942 -0.000 -0.000 -0.000 0.196 -0.136 -0.366
1525745866.952 -0.000 -0.000 -0.000 0.196 -0.136 -0.366
1525745866.962 -0.000 -0.000 -0.000 0.193 -0.125 -0.362
1525745866.972 -0.000 -0.000 -0.000 0.193 -0.125 -0.362
1525745866.982 -0.000 -0.000 -0.000 0.193 -0.125 -0.362
1525745866.992 -0.000 -0.000 -0.000 0.193 -0.125 -0.362
1525745867.002 -0.000 -0.000 -0.000 0.193 -0.125 -0.362
1525745867.012 -0.000 -0.000 -0.000 0.184 -0.095 -0.345
1525745867.022 -0.000 -0.000 -0.000 0.184 -0.095 -0.345
1525745867.032 -0.000 -0.000 -0.000 0.184 -0.095 -0.345
1525745867.042 -0.000 -0.000 -0.000 0.184 -0.095 -0.345
1525745867.052 -0.000 -0.000 -0.000 0.184 -0.095 -0.345
1525745867.062 -0.000 -0.000 -0.000 0.180 -0.065 -0.327
1525745867.072 -0.000 -0.000 -0.000 0.180 -0.065 -0.327
1525745867.082 -0.000 -0.000 -0.000 0.180 -0.065 -0.327
1525745867.092 -0.000 -0.000 -0.000 0.180 -0.065 -0.327
1525745867.102 -0.000 -0.000 -0.000 0.180 -0.065 -0.327
1525745867.112 -0.000 -0.000 -0.000 0.182 -0.039 -0.317
1525745867.122 -0.000 -0.000 -0.000 0.182 -0.039 -0.317
1525745867.132 -0.000 -0.000 -0.000 0.182 -0.039 -0.317
1525745867.142 -0.000 -0.000 -0.000 0.182 -0.039 -0.317
1525745867.152 -0.000 -0.000 -0.000 0.182 -0.039 -0.317
1525745867.162 -0.000 -0.000 -0.000 0.187 -0.011 -0.310
1525745867.172 -0.000 -0.000 -0.000 0.187 -0.011 -0.310
1525745867.182 -0.000 -0.000 -0.000 0.187 -0.011 -0.310
1525745867.192 -0.000 -0.000 -0.000 0.187 -0.011 -0.310
1525745867.202 -0.000 -0.000 -0.000 0.187 -0.011 -0.310
1525745867.212 -0.000 -0.000 -0.000 0.190 0.021 -0.304
1525745867.222 -0.000 -0.000 -0.000 0.190 0.021 -0.304
1525745867.232 -0.000 -0.000 -0.000 0.190 0.021 -0.304
1525745867.242 -0.000 -0.000 -0.000 0.190 0.021 -0.304
1525745867.252 -0.000 -0.000 -0.000 0.190 0.021 -0.304
1525745867.262 -0.000 -0.000 -0.000 0.196 0.060 -0.298
1525745867.272 -0.000 -0.000 -0.000 0.196 0.060 -0.298
1525745867.282 -0.000 -0.000 -0.000 0.196 0.060 -0.298
1525745867.292 -0.000 -0.000 -0.000 0.196 0.060 -0.298
1525745867.302 -0.000 -0.000 -0.000 0.196 0.060 -0.298
1525745867.312 0.000 -0.000 -0.000 0.202 0.096 -0.297
1525745867.322 0.000 -0.000 -0.000 0.202 0.096 -0.297
1525745867.332 0.000 -0.000 -0.000 0.202 0.096 -0.297
1525745867.342 0.000 -0.000 -0.000 0.202 0.096 -0.297
1525745867.352 0.000 -0.000 -0.000 0.202 0.096 -0.297
1525745867.362 0.000 -0.000 -0.000 0.208 0.132 -0.300
1525745867.372 0.000 -0.000 -0.000 0.208 0.132 -0.300
1525745867.382 0.000 -0.000 -0.000 0.208 0.132 -0.300
1525745867.392 0.000 -0.000 -0.000 0.208 0.132 -0.300
1525745867.402 0.000 -0.000 -0.000 0.208 0.132 -0.300
1525745867.412 0.000 -0.000 -0.000 0.211 0.143 -0.296
1525745867.422 0.000 -0.000 -0.000 0.211 0.143 -0.296
1525745867.432 0.000 -0.000 -0.000 0.211 0.143 -0.296
1525745867.442 0.000 -0.000 -0.000 0.211 0.143 -0.296
1525745867.452 0.000 -0.000 -0.000 0.211 0.143 -0.296
1525745867.462 0.000 -0.000 -0.000 0.214 0.159 -0.303
1525745867.472 0.000 -0.000 -0.000 0.214 0.159 -0.303
1525745867.482 0.000 -0.000 -0.000 0.214 0.159 -0.303
1525745867.492 0.000 -0.000 -0.000 0.214 0.159 -0.303
1525745867.502 0.000 -0.000 -0.000 0.214 0.159 -0.303
1525745867.512 0.000 -0.000 -0.000 0.221 0.190 -0.324
1525745867.522 0.000 -0.000 -0.000 0.221 0.190 -0.324
1525745867.532 0.000 -0.000 -0.000 0.221 0.190 -0.324
1525745867.542 0.000 -0.000 -0.000 0.221 0.190 -0.324
1525745867.552 0.000 -0.000 -0.000 0.221 0.190 -0.324
1525745867.562 0.000 -0.000 -0.000 0.232 0.232 -0.354
1525745867.572 0.000 -0.000 -0.000 0.232 0.232 -0.354
1525745867.582 0.000 -0.000 -0.000 0.232 0.232 -0.354
1525745867.592 0.000 -0.000 -0.000 0.232 0.232 -0.354
1525745867.602 0.000 -0.000 -0.000 0.232 0.232 -0.354
1525745867.612 0.001 -0.000 -0.000 0.245 0.272 -0.392
1525745867.622 0.001 -0.000 -0.000 0.245 0.272 -0.392
1525745867.632 0.001 -0.000 -0.000 0.245 0.272 -0.392
1525745867.642 0.001 -0.000 -0.000 0.245 0.272 -0.392
1525745867.652 0.001 -0.000 -0.000 0.245 0.272 -0.392
1525745867.662 0.001 -0.000 -0.000 0.259 0.308 -0.438
1525745867.672 0.001 -0.000 -0.000 0.259 0.308 -0.438
1525745867.682 0.001 -0.000 -0.000 0.259 0.308 -0.438
1525745867.692 0.001 -0.000 -0.000 0.259 0.308 -0.438
1525745867.702 0.001 -0.000 -0.000 0.259 0.308 -0.438
1525745867.712 0.001 -0.001 -0.000 0.277 0.344 -0.488
1525745867.722 0.001 -0.001 -0.000 0.277 0.344 -0.488
1525745867.732 0.001 -0.001 -0.000 0.277 0.344 -0.488
1525745867.742 0.001 -0.001 -0.000 0.277 0.344 -0.488
1525745867.752 0.001 -0.001 -0.000 0.277 0.344 -0.488
1525745867.762 0.001 -0.001 -0.000 0.302 0.381 -0.543
1525745867.772 0.001 -0.001 -0.000 0.302 0.381 -0.543
1525745867.782 0.001 -0.001 -0.000 0.302 0.381 -0.543
1525745867.792 0.001 -0.001 -0.000 0.302 0.381 -0.543
1525745867.802 0.001 -0.001 -0.000 0.302 0.381 -0.543
1525745867.812 0.001 -0.001 -0.000 0.330 0.413 -0.600
1525745867.822 0.001 -0.001 -0.000 0.330 0.413 -0.600
1525745867.832 0.001 -0.001 -0.000 0.330 0.413 -0.600
1525745867.842 0.001 -0.001 -0.000 0.330 0.413 -0.600
1525745867.852 0.001 -0.001 -0.000 0.330 0.413 -0.600
1525745867.862 0.001 -0.001 -0.000 0.350 0.428 -0.644
1525745867.872 0.001 -0.001 -0.000 0.350 0.428 -0.644
1525745867.882 0.001 -0.001 -0.000 0.350 0.428 -0.644
1525745867.892 0.001 -0.001 -0.000 0.350 0.428 -0.644
1525745867.902 0.001 -0.001 -0.000 0.350 0.428 -0.644
1525745867.912 0.001 -0.001 -0.000 0.357 0.428 -0.675
1525745867.922 0.001 -0.001 -0.000 0.357 0.428 -0.675
1525745867.932 0.001 -0.001 -0.000 0.357 0.428 -0.675
1525745867.942 0.001 -0.001 -0.000 0.357 0.428 -0.675
1525745867.952 0.001 -0.001 -0.000 0.357 0.428 -0.675
1525745867.962 0.001 -0.001 -0.000 0.341 0.412 -0.688
1525745867.972 0.001 -0.001 -0.000 0.341 0.412 -0.688
1525745867.982 0.001 -0.001 -0.000 0.341 0.412 -0.688
1525745867.992 0.001 -0.001 -0.000 0.341 0.412 -0.688
1525745868.002 0.001 -0.001 -0.000 0.341 0.412 -0.688
1525745868.012 0.001 -0.001 -0.000 0.304 0.390 -0.685
1525745868.022 0.001 -0.001 -0.000 0.304 0.390 -0.685
1525745868.032 0.001 -0.001 -0.000 0.304 0.390 -0.685
1525745868.042 0.001 -0.001 -0.000 0.304 0.390 -0.685
1525745868.052 0.001 -0.001 -0.000 0.304 0.390 -0.685
1525745868.062 0.001 -0.001 -0.000 0.265 0.367 -0.683
1525745868.072 0.001 -0.001 -0.000 0.265 0.367 -0.683
1525745868.082 0.001 -0.001 -0.000 0.265 0.367 -0.683
1525745868.092 0.001 -0.001 -0.000 0.265 0.367 -0.683
1525745868.102 0.001 -0.001 -0.000 0.265 0.367 -0.683
1525745868.112 0.001 -0.001 -0.000 0.232 0.343 -0.683
1525745868.122 0.001 -0.001 -0.000 0.232 0.343 -0.683
1525745868.132 0.001 -0.001 -0.000 0.232 0.343 -0.683
1525745868.142 0.001 -0.001 -0.000 0.232 0.343 -0.683
1525745868.152 0.001 -0.001 -0.000 0.232 0.343 -0.683
1525745868.162 0.001 -0.001 -0.000 0.210 0.318 -0.683
1525745868.172 0.001 -0.001 -0.000 0.210 0.318 -0.683
1525745868.182 0.001 -0.001 -0.000 0.210 0.318 -0.683
1525745868.192 0.001 -0.001 -0.000 0.210 0.318 -0.683
1525745868.202 0.001 -0.001 -0.000 0.210 0.318 -0.683
1525745868.212 0.001 -0.001 -0.000 0.185 0.277 -0.689
1525745868.222 0.001 -0.001 -0.000 0.185 0.277 -0.689
1525745868.232 0.001 -0.001 -0.000 0.185 0.277 -0.689
1525745868.242 0.001 -0.001 -0.000 0.185 0.277 -0.689
1525745868.252 0.001 -0.001 -0.000 0.185 0.277 -0.689
1525745868.262 0.001 -0.001 -0.000 0.152 0.232 -0.694
1525745868.272 0.001 -0.001 -0.000 0.152 0.232 -0.694
1525745868.282 0.001 -0.001 -0.000 0.152 0.232 -0.694
1525745868.292 0.001 -0.001 -0.000 0.152 0.232 -0.694
1525745868.302 0.001 -0.001 -0.000 0.152 0.232 -0.694
1525745868.312 0.001 -0.001 -0.000 0.129 0.213 -0.681
1525745868.322 0.001 -0.001 -0.000 0.129 0.213 -0.681
1525745868.332 0.001 -0.001 -0.000 0.129 0.213 -0.681
1525745868.342 0.001 -0.001 -0.000 0.129 0.213 -0.681
1525745868.352 0.001 -0.001 -0.000 0.129 0.213 -0.681
1525745868.362 0.001 -0.001 -0.000 0.125 0.193 -0.668
1525745868.372 0.001 -0.001 -0.000 0.125 0.193 -0.668
1525745868.382 0.001 -0.001 -0.000 0.125 0.193 -0.668
1525745868.392 0.001 -0.001 -0.000 0.125 0.193 -0.668
1525745868.402 0.001 -0.001 -0.000 0.125 0.193 -0.668
1525745868.412 0.001 -0.001 -0.000 0.201 0.173 -0.659
1525745868.422 0.001 -0.001 -0.000 0.201 0.173 -0.659
1525745868.432 0.001 -0.001 -0.000 0.201 0.173 -0.659
1525745868.442 0.001 -0.001 -0.000 0.201 0.173 -0.659
1525745868.452 0.001 -0.001 -0.000 0.201 0.173 -0.659
1525745868.462 0.001 -0.001 -0.000 0.243 0.144 -0.648
1525745868.472 0.001 -0.001 -0.000 0.243 0.144 -0.648
1525745868.482 0.001 -0.001 -0.000 0.243 0.144 -0.648
1525745868.492 0.001 -0.001 -0.000 0.243 0.144 -0.648
1525745868.502 0.001 -0.001 -0.000 0.243 0.144 -0.648
1525745868.512 0.002 -0.001 -0.000 0.250 0.114 -0.635
1525745868.522 0.002 -0.001 -0.000 0.250 0.114 -0.635
1525745868.532 0.002 -0.001 -0.000 0.250 0.114 -0.635
1525745868.542 0.002 -0.001 -0.000 0.250 0.114 -0.635
1525745868.552 0.002 -0.001 -0.000 0.250 0.114 -0.635
1525745868.562 0.002 -0.001 -0.000 0.324 0.058 -0.633
1525745868.572 0.002 -0.001 -0.000 0.324 0.058 -0.633
1525745868.582 0.002 -0.001 -0.000 0.324 0.058 -0.633
1525745868.592 0.002 -0.001 -0.000 0.324 0.058 -0.633
1525745868.602 0.002 -0.001 -0.000 0.324 0.058 -0.633
1525745868.612 0.002 -0.001 -0.000 0.311 0.079 -0.601
1525745868.622 0.002 -0.001 -0.000 0.311 0.079 -0.601
1525745868.632 0.002 -0.001 -0.000 0.311 0.079 -0.601
1525745868.642 0.002 -0.001 -0.000 0.311 0.079 -0.601
1525745868.652 0.002 -0.001 -0.000 0.311 0.079 -0.601
1525745868.662 0.002 -0.001 -0.000 0.298 0.159 -0.558
1525745868.672 0.002 -0.001 -0.000 0.298 0.159 -0.558
1525745868.682 0.002 -0.001 -0.000 0.298 0.159 -0.558
1525745868.692 0.002 -0.001 -0.000 0.298 0.159 -0.558
1525745868.702 0.002 -0.001 -0.000 0.298 0.159 -0.558
1525745868.712 0.001 -0.001 -0.000 0.284 0.246 -0.513
1525745868.722 0.001 -0.001 -0.000 0.284 0.246 -0.513
1525745868.732 0.001 -0.001 -0.000 0.284 0.246 -0.513
1525745868.742 0.001 -0.001 -0.000 0.284 0.246 -0.513
1525745868.752 0.001 -0.001 -0.000 0.284 0.246 -0.513
1525745868.762 0.001 -0.001 -0.000 0.243 0.322 -0.463
1525745868.772 0.001 -0.001 -0.000 0.243 0.322 -0.463
1525745868.782 0.001 -0.001 -0.000 0.243 0.322 -0.463
1525745868.792 0.001 -0.001 -0.000 0.243 0.322 -0.463
1525745868.802 0.001 -0.001 -0.000 0.243 0.322 -0.463
1525745868.812 0.001 -0.001 -0.000 0.207 0.386 -0.414
1525745868.822 0.001 -0.001 -0.000 0.207 0.386 -0.414
1525745868.832 0.001 -0.001 -0.000 0.207 0.386 -0.414
1525745868.842 0.001 -0.001 -0.000 0.207 0.386 -0.414
1525745868.852 0.001 -0.001 -0.000 0.207 0.386 -0.414
1525745868.862 0.001 -0.001 0.000 0.184 0.443 -0.367
1525745868.872 0.001 -0.001 0.000 0.184 0.443 -0.367
1525745868.882 0.001 -0.001 0.000 0.184 0.443 -0.367
1525745868.892 0.001 -0.001 0.000 0.184 0.443 -0.367
1525745868.902 0.001 -0.001 0.000 0.184 0.443 -0.367
1525745868.912 0.002 -0.001 0.000 0.176 0.498 -0.321
1525745868.922 0.002 -0.001 0.000 0.176 0.498 -0.321
1525745868.932 0.002 -0.001 0.000 0.176 0.498 -0.321
1525745868.942 0.002 -0.001 0.000 0.176 0.498 -0.321
1525745868.952 0.002 -0.001 0.000 0.176 0.498 -0.321
1525745868.962 0.002 -0.001 0.000 0.195 0.552 -0.285
1525745868.972 0.002 -0.001 0.000 0.195 0.552 -0.285
1525745868.982 0.002 -0.001 0.000 0.195 0.552 -0.285
1525745868.992 0.002 -0.001 0.000 0.195 0.552 -0.285
1525745869.002 0.002 -0.001 0.000 0.195 0.552 -0.285
1525745869.012 0.001 -0.001 0.000 0.243 0.590 -0.263
1525745869.022 0.001 -0.001 0.000 0.243 0.590 -0.263
1525745869.032 0.001 -0.001 0.000 0.243 0.590 -0.263
1525745869.042 0.001 -0.001 0.000 0.243 0.590 -0.263
1525745869.052 0.001 -0.001 0.000 0.243 0.590 -0.263
1525745869.062 0.001 -0.001 0.000 0.311 0.604 -0.258
1525745869.072 0.001 -0.001 0.000 0.311 0.604 -0.258
1525745869.082 0.001 -0.001 0.000 0.311 0.604 -0.258
1525745869.092 0.001 -0.001 0.000 0.311 0.604 -0.258
1525745869.102 0.001 -0.001 0.000 0.311 0.604 -0.258
1525745869.112 0.001 -0.001 0.000 0.376 0.595 -0.261
1525745869.122 0.001 -0.001 0.000 0.376 0.595 -0.261
1525745869.132 0.001 -0.001 0.000 0.376 0.595 -0.261
1525745869.142 0.001 -0.001 0.000 0.376 0.595 -0.261
1525745869.152 0.001 -0.001 0.000 0.376 0.595 -0.261
1525745869.162 0.001 -0.001 0.000 0.427 0.567 -0.265
1525745869.172 0.001 -0.001 0.000 0.427 0.567 -0.265
1525745869.182 0.001 -0.001 0.000 0.427 0.567 -0.265
1525745869.192 0.001 -0.001 0.000 0.427 0.567 -0.265
1525745869.202 0.001 -0.001 0.000 0.427 0.567 -0.265
1525745869.212 0.001 -0.001 0.000 0.462 0.530 -0.268
1525745869.222 0.001 -0.001 0.000 0.462 0.530 -0.268
1525745869.232 0.001 -0.001 0.000 0.462 0.530 -0.268
1525745869.242 0.001 -0.001 0.000 0.462 0.530 -0.268
1525745869.252 0.001 -0.001 0.000 0.462 0.530 -0.268
1525745869.262 0.001 -0.001 0.000 0.485 0.495 -0.267
1525745869.272 0.001 -0.001 0.000 0.485 0.495 -0.267
1525745869.282 0.001 -0.001 0.000 0.485 0.495 -0.267
1525745869.292 0.001 -0.001 0.000 0.485 0.495 -0.267
1525745869.302 0.001 -0.001 0.000 0.485 0.495 -0.267
1525745869.312 0.001 -0.001 0.000 0.497 0.467 -0.259
1525745869.322 0.001 -0.001 0.000 0.497 0.467 -0.259
1525745869.332 0.001 -0.001 0.000 0.497 0.467 -0.259
1525745869.342 0.001 -0.001 0.000 0.497 0.467 -0.259
1525745869.352 0.001 -0.001 0.000 0.497 0.467 -0.259
1525745869.362 0.001 -0.001 0.000 0.502 0.440 -0.252
1525745869.372 0.001 -0.001 0.000 0.502 0.440 -0.252
1525745869.382 0.001 -0.001 0.000 0.502 0.440 -0.252
1525745869.392 0.001 -0.001 0.000 0.502 0.440 -0.252
1525745869.402 0.001 -0.001 0.000 0.502 0.440 -0.252
1525745869.412 0.001 -0.001 0.000 0.498 0.414 -0.244
1525745869.422 0.001 -0.001 0.000 0.498 0.414 -0.244
1525745869.432 0.001 -0.001 0.000 0.498 0.414 -0.244
1525745869.442 0.001 -0.001 0.000 0.498 0.414 -0.244
1525745869.452 0.001 -0.001 0.000 0.498 0.414 -0.244
1525745869.462 0.001 -0.001 -0.000 0.474 0.392 -0.227
1525745869.472 0.001 -0.001 -0.000 0.474 0.392 -0.227
1525745869.482 0.001 -0.001 -0.000 0.474 0.392 -0.227
1525745869.492 0.001 -0.001 -0.000 0.474 0.392 -0.227
1525745869.502 0.001 -0.001 -0.000 0.474 0.392 -0.227
1525745869.512 0.001 -0.001 -0.000 0.437 0.376 -0.205
1525745869.522 0.001 -0.001 -0.000 0.437 0.376 -0.205
1525745869.532 0.001 -0.001 -0.000 0.437 0.376 -0.205
1525745869.542 0.001 -0.001 -0.000 0.437 0.376 -0.205
1525745869.552 0.001 -0.001 -0.000 0.437 0.376 -0.205
1525745869.562 0.001 -0.001 -0.000 0.393 0.368 -0.179
1525745869.572 0.001 -0.001 -0.000 0.393 0.368 -0.179
1525745869.582 0.001 -0.001 -0.000 0.393 0.368 -0.179
1525745869.592 0.001 -0.001 -0.000 0.393 0.368 -0.179
1525745869.602 0.001 -0.001 -0.000 0.393 0.368 -0.179
1525745869.612 0.001 -0.001 -0.001 0.347 0.365 -0.152
1525745869.622 0.001 -0.001 -0.001 0.347 0.365 -0.152
1525745869.632 0.001 -0.001 -0.001 0.347 0.365 -0.152
1525745869.642 0.001 -0.001 -0.001 0.347 0.365 -0.152
1525745869.652 0.001 -0.001 -0.001 0.347 0.365 -0.152
1525745869.662 0.001 -0.001 -0.001 0.303 0.362 -0.129
1525745869.672 0.001 -0.001 -0.001 0.303 0.362 -0.129
1525745869.682 0.001 -0.001 -0.001 0.303 0.362 -0.129
1525745869.692 0.001 -0.001 -0.001 0.303 0.362 -0.129
1525745869.702 0.001 -0.001 -0.001 0.303 0.362 -0.129
1525745869.712 0.000 -0.001 -0.001 0.264 0.358 -0.112
1525745869.722 0.000 -0.001 -0.001 0.264 0.358 -0.112
1525745869.732 0.000 -0.001 -0.001 0.264 0.358 -0.112
1525745869.742 0.000 -0.001 -0.001 0.264 0.358 -0.112
1525745869.752 0.000 -0.001 -0.001 0.264 0.358 -0.112
1525745869.762 0.000 -0.001 -0.001 0.227 0.352 -0.098
1525745869.772 0.000 -0.001 -0.001 0.227 0.352 -0.098
1525745869.782 0.000 -0.001 -0.001 0.227 0.352 -0.098
1525745869.792 0.000 -0.001 -0.001 0.227 0.352 -0.098
1525745869.802 0.000 -0.001 -0.001 0.227 0.352 -0.098
1525745869.812 0.000 -0.001 -0.001 0.192 0.345 -0.088
1525745869.822 0.000 -0.001 -0.001 0.192 0.345 -0.088
1525745869.832 0.000 -0.001 -0.001 0.192 0.345 -0.088
1525745869.842 0.000 -0.001 -0.001 0.192 0.345 -0.088
1525745869.852 0.000 -0.001 -0.001 0.192 0.345 -0.088
1525745869.862 0.000 -0.000 -0.001 0.156 0.340 -0.077
1525745869.872 0.000 -0.000 -0.001 0.156 0.340 -0.077
1525745869.882 0.000 -0.000 -0.001 0.156 0.340 -0.077
1525745869.892 0.000 -0.000 -0.001 0.156 0.340 -0.077
1525745869.902 0.000 -0.000 -0.001 0.156 0.340 -0.077
1525745869.912 0.000 -0.000 -0.001 0.122 0.329 -0.070
1525745869.922 0.000 -0.000 -0.001 0.122 0.329 -0.070
1525745869.932 0.000 -0.000 -0.001 0.122 0.329 -0.070
1525745869.942 0.000 -0.000 -0.001 0.122 0.329 -0.070
1525745869.952 0.000 -0.000 -0.001 0.122 0.329 -0.070
1525745869.962 0.000 -0.000 -0.001 0.090 0.319 -0.060
1525745869.972 0.000 -0.000 -0.001 0.090 0.319 -0.060
1525745869.982 0.000 -0.000 -0.001 0.090 0.319 -0.060
1525745869.992 0.000 -0.000 -0.001 0.090 0.319 -0.060
1525745870.002 0.000 -0.000 -0.001 0.090 0.319 -0.060
1525745870.012 0.000 -0.000 -0.001 0.057 0.309 -0.053
1525745870.022 0.000 -0.000 -0.001 0.057 0.309 -0.053
1525745870.032 0.000 -0.000 -0.001 0.057 0.309 -0.053
1525745870.042 0.000 -0.000 -0.001 0.057 0.309 -0.053
1525745870.052 0.000 -0.000 -0.001 0.057 0.309 -0.053
1525745870.062 -0.000 -0.000 -0.001 0.031 0.295 -0.050
1525745870.072 -0.000 -0.000 -0.001 0.031 0.295 -0.050
1525745870.082 -0.000 -0.000 -0.001 0.031 0.295 -0.050
1525745870.092 -0.000 -0.000 -0.001 0.031 0.295 -0.050
1525745870.102 -0.000 -0.000 -0.001 0.031 0.295 -0.050
1525745870.112 -0.000 -0.000 -0.001 0.010 0.283 -0.048
1525745870.122 -0.000 -0.000 -0.001 0.010 0.283 -0.048
1525745870.132 -0.000 -0.000 -0.001 0.010 0.283 -0.048
1525745870.142 -0.000 -0.000 -0.001 0.010 0.283 -0.048
1525745870.152 -0.000 -0.000 -0.001 0.010 0.283 -0.048
1525745870.162 -0.000 -0.000 -0.001 -0.002 0.268 -0.046
1525745870.172 -0.000 -0.000 -0.001 -0.002 0.268 -0.046
1525745870.182 -0.000 -0.000 -0.001 -0.002 0.268 -0.046
1525745870.192 -0.000 -0.000 -0.001 -0.002 0.268 -0.046
1525745870.202 -0.000 -0.000 -0.001 -0.002 0.268 -0.046
1525745870.212 -0.000 -0.000 -0.001 -0.014 0.256 -0.042
1525745870.222 -0.000 -0.000 -0.001 -0.014 0.256 -0.042
1525745870.232 -0.000 -0.000 -0.001 -0.014 0.256 -0.042
1525745870.242 -0.000 -0.000 -0.001 -0.014 0.256 -0.042
1525745870.252 -0.000 -0.000 -0.001 -0.014 0.256 -0.042
1525745870.262 -0.000 -0.000 -0.001 -0.024 0.248 -0.038
1525745870.272 -0.000 -0.000 -0.001 -0.024 0.248 -0.038
1525745870.282 -0.000 -0.000 -0.001 -0.024 0.248 -0.038
1525745870.292 -0.000 -0.000 -0.001 -0.024 0.248 -0.038
1525745870.302 -0.000 -0.000 -0.001 -0.024 0.248 -0.038
1525745870.312 -0.000 -0.000 -0.001 -0.027 0.244 -0.035
1525745870.322 -0.000 -0.000 -0.001 -0.027 0.244 -0.035
1525745870.332 -0.000 -0.000 -0.001 -0.027 0.244 -0.035
1525745870.342 -0.000 -0.000 -0.001 -0.027 0.244 -0.035
1525745870.352 -0.000 -0.000 -0.001 -0.027 0.244 -0.035
1525745870.362 -0.000 -0.000 -0.001 -0.031 0.243 -0.034
1525745870.372 -0.000 -0.000 -0.001 -0.031 0.243 -0.034
1525745870.382 -0.000 -0.000 -0.001 -0.031 0.243 -0.034
1525745870.392 -0.000 -0.000 -0.001 -0.031 0.243 -0.034
1525745870.402 -0.000 -0.000 -0.001 -0.031 0.243 -0.034
1525745870.412 -0.000 -0.000 -0.001 -0.029 0.250 -0.034
1525745870.422 -0.000 -0.000 -0.001 -0.029 0.250 -0.034
1525745870.432 -0.000 -0.000 -0.001 -0.029 0.250 -0.034
1525745870.442 -0.000 -0.000 -0.001 -0.029 0.250 -0.034
1525745870.452 -0.000 -0.000 -0.001 -0.029 0.250 -0.034
1525745870.462 -0.000 -0.000 -0.001 -0.027 0.257 -0.034
1525745870.472 -0.000 -0.000 -0.001 -0.027 0.257 -0.034
1525745870.482 -0.000 -0.000 -0.001 -0.027 0.257 -0.034
1525745870.492 -0.000 -0.000 -0.001 -0.027 0.257 -0.034
1525745870.502 -0.000 -0.000 -0.001 -0.027 0.257 -0.034
1525745870.512 -0.000 -0.000 -0.001 -0.023 0.269 -0.034
1525745870.522 -0.000 -0.000 -0.001 -0.023 0.269 -0.034
1525745870.532 -0.000 -0.000 -0.001 -0.023 0.269 -0.034
1525745870.542 -0.000 -0.000 -0.001 -0.023 0.269 -0.034
1525745870.552 -0.000 -0.000 -0.001 -0.023 0.269 -0.034
1525745870.562 -0.000 -0.000 -0.001 -0.019 0.280 -0.037
1525745870.572 -0.000 -0.000 -0.001 -0.019 0.280 -0.037
1525745870.582 -0.000 -0.000 -0.001 -0.019 0.280 -0.037
1525745870.592 -0.000 -0.000 -0.001 -0.019 0.280 -0.037
1525745870.602 -0.000 -0.000 -0.001 -0.019 0.280 -0.037
1525745870.612 -0.000 -0.000 -0.001 -0.017 0.296 -0.040
1525745870.622 -0.000 -0.000 -0.001 -0.017 0.296 -0.040
1525745870.632 -0.000 -0.000 -0.001 -0.017 0.296 -0.040
1525745870.642 -0.000 -0.000 -0.001 -0.017 0.296 -0.040
1525745870.652 -0.000 -0.000 -0.001 -0.017 0.296 -0.040
1525745870.662 0.000 -0.000 -0.001 -0.016 0.312 -0.041
1525745870.672 0.000 -0.000 -0.001 -0.016 0.312 -0.041
1525745870.682 0.000 -0.000 -0.001 -0.016 0.312 -0.041
1525745870.692 0.000 -0.000 -0.001 -0.016 0.312 -0.041
1525745870.702 0.000 -0.000 -0.001 -0.016 0.312 -0.041
1525745870.712 0.000 -0.000 -0.001 -0.019 0.330 -0.043
1525745870.722 0.000 -0.000 -0.001 -0.019 0.330 -0.043
1525745870.732 0.000 -0.000 -0.001 -0.019 0.330 -0.043
1525745870.742 0.000 -0.000 -0.001 -0.019 0.330 -0.043
1525745870.752 0.000 -0.000 -0.001 -0.019 0.330 -0.043
1525745870.762 0.000 -0.000 -0.001 -0.026 0.347 -0.045
1525745870.772 0.000 -0.000 -0.001 -0.026 0.347 -0.045
1525745870.782 0.000 -0.000 -0.001 -0.026 0.347 -0.045
1525745870.792 0.000 -0.000 -0.001 -0.026 0.347 -0.045
1525745870.802 0.000 -0.000 -0.001 -0.026 0.347 -0.045
1525745870.812 0.000 -0.000 -0.001 -0.034 0.358 -0.049
1525745870.822 0.000 -0.000 -0.001 -0.034 0.358 -0.049
1525745870.832 0.000 -0.000 -0.001 -0.034 0.358 -0.049
1525745870.842 0.000 -0.000 -0.001 -0.034 0.358 -0.049
1525745870.852 0.000 -0.000 -0.001 -0.034 0.358 -0.049
1525745870.862 0.000 -0.000 -0.001 -0.042 0.368 -0.050
1525745870.872 0.000 -0.000 -0.001 -0.042 0.368 -0.050
1525745870.882 0.000 -0.000 -0.001 -0.042 0.368 -0.050
1525745870.892 0.000 -0.000 -0.001 -0.042 0.368 -0.050
1525745870.902 0.000 -0.000 -0.001 -0.042 0.368 -0.050
1525745870.912 0.000 -0.000 -0.001 -0.052 0.372 -0.053
1525745870.922 0.000 -0.000 -0.001 -0.052 0.372 -0.053
1525745870.932 0.000 -0.000 -0.001 -0.052 0.372 -0.053
1525745870.942 0.000 -0.000 -0.001 -0.052 0.372 -0.053
1525745870.952 0.000 -0.000 -0.001 -0.052 0.372 -0.053
1525745870.962 0.000 -0.000 -0.001 -0.062 0.371 -0.056
1525745870.972 0.000 -0.000 -0.001 -0.062 0.371 -0.056
1525745870.982 0.000 -0.000 -0.001 -0.062 0.371 -0.056
1525745870.992 0.000 -0.000 -0.001 -0.062 0.371 -0.056
1525745871.002 0.000 -0.000 -0.001 -0.062 0.371 -0.056
1525745871.012 0.000 -0.000 -0.001 -0.067 0.372 -0.055
1525745871.022 0.000 -0.000 -0.001 -0.067 0.372 -0.055
1525745871.032 0.000 -0.000 -0.001 -0.067 0.372 -0.055
1525745871.042 0.000 -0.000 -0.001 -0.067 0.372 -0.055
1525745871.052 0.000 -0.000 -0.001 -0.067 0.372 -0.055
1525745871.062 0.000 -0.000 -0.001 -0.072 0.370 -0.056
1525745871.072 0.000 -0.000 -0.001 -0.072 0.370 -0.056
1525745871.082 0.000 -0.000 -0.001 -0.072 0.370 -0.056
1525745871.092 0.000 -0.000 -0.001 -0.072 0.370 -0.056
1525745871.102 0.000 -0.000 -0.001 -0.072 0.370 -0.056
1525745871.112 0.000 -0.000 -0.001 -0.077 0.368 -0.056
1525745871.122 0.000 -0.000 -0.001 -0.077 0.368 -0.056
1525745871.132 0.000 -0.000 -0.001 -0.077 0.368 -0.056
1525745871.142 0.000 -0.000 -0.001 -0.077 0.368 -0.056
1525745871.152 0.000 -0.000 -0.001 -0.077 0.368 -0.056
1525745871.162 0.000 -0.000 -0.001 -0.081 0.366 -0.054
1525745871.172 0.000 -0.000 -0.001 -0.081 0.366 -0.054
1525745871.182 0.000 -0.000 -0.001 -0.081 0.366 -0.054
1525745871.192 0.000 -0.000 -0.001 -0.081 0.366 -0.054
1525745871.202 0.000 -0.000 -0.001 -0.081 0.366 -0.054
1525745871.212 0.000 -0.000 -0.001 -0.085 0.363 -0.055
1525745871.222 0.000 -0.000 -0.001 -0.085 0.363 -0.055
1525745871.232 0.000 -0.000 -0.001 -0.085 0.363 -0.055
1525745871.242 0.000 -0.000 -0.001 -0.085 0.363 -0.055
1525745871.252 0.000 -0.000 -0.001 -0.085 0.363 -0.055
1525745871.262 0.000 -0.000 -0.001 -0.076 0.360 -0.056
1525745871.272 0.000 -0.000 -0.001 -0.076 0.360 -0.056
1525745871.282 0.000 -0.000 -0.001 -0.076 0.360 -0.056
1525745871.292 0.000 -0.000 -0.001 -0.076 0.360 -0.056
1525745871.302 0.000 -0.000 -0.001 -0.076 0.360 -0.056
1525745871.312 0.000 -0.000 -0.001 -0.064 0.366 -0.052
1525745871.322 0.000 -0.000 -0.001 -0.064 0.366 -0.052
1525745871.332 0.000 -0.000 -0.001 -0.064 0.366 -0.052
1525745871.342 0.000 -0.000 -0.001 -0.064 0.366 -0.052
1525745871.352 0.000 -0.000 -0.001 -0.064 0.366 -0.052
1525745871.362 0.000 -0.000 -0.001 -0.054 0.372 -0.048
1525745871.372 0.000 -0.000 -0.001 -0.054 0.372 -0.048
1525745871.382 0.000 -0.000 -0.001 -0.054 0.372 -0.048
1525745871.392 0.000 -0.000 -0.001 -0.054 0.372 -0.048
1525745871.402 0.000 -0.000 -0.001 -0.054 0.372 -0.048
1525745871.412 0.000 -0.000 -0.001 -0.047 0.375 -0.044
1525745871.422 0.000 -0.000 -0.001 -0.047 0.375 -0.044
1525745871.432 0.000 -0.000 -0.001 -0.047 0.375 -0.044
1525745871.442 0.000 -0.000 -0.001 -0.047 0.375 -0.044
1525745871.452 0.000 -0.000 -0.001 -0.047 0.375 -0.044
1525745871.462 0.000 -0.000 -0.001 -0.045 0.381 -0.039
1525745871.472 0.000 -0.000 -0.001 -0.045 0.381 -0.039
1525745871.482 0.000 -0.000 -0.001 -0.045 0.381 -0.039
1525745871.492 0.000 -0.000 -0.001 -0.045 0.381 -0.039
1525745871.502 0.000 -0.000 -0.001 -0.045 0.381 -0.039
1525745871.512 0.000 -0.000 -0.001 -0.048 0.387 -0.037
1525745871.522 0.000 -0.000 -0.001 -0.048 0.387 -0.037
1525745871.532 0.000 -0.000 -0.001 -0.048 0.387 -0.037
1525745871.542 0.000 -0.000 -0.001 -0.048 0.387 -0.037
1525745871.552 0.000 -0.000 -0.001 -0.048 0.387 -0.037
1525745871.562 0.000 -0.000 -0.002 -0.045 0.398 -0.032
1525745871.572 0.000 -0.000 -0.002 -0.045 0.398 -0.032
1525745871.582 0.000 -0.000 -0.002 -0.045 0.398 -0.032
1525745871.592 0.000 -0.000 -0.002 -0.045 0.398 -0.032
1525745871.602 0.000 -0.000 -0.002 -0.045 0.398 -0.032
1525745871.612 0.000 -0.000 -0.002 -0.040 0.405 -0.032
1525745871.622 0.000 -0.000 -0.002 -0.040 0.405 -0.032
1525745871.632 0.000 -0.000 -0.002 -0.040 0.405 -0.032
1525745871.642 0.000 -0.000 -0.002 -0.040 0.405 -0.032
1525745871.652 0.000 -0.000 -0.002 -0.040 0.405 -0.032
1525745871.662 0.000 -0.000 -0.002 -0.032 0.409 -0.034
1525745871.672 0.000 -0.000 -0.002 -0.032 0.409 -0.034
1525745871.682 0.000 -0.000 -0.002 -0.032 0.409 -0.034
1525745871.692 0.000 -0.000 -0.002 -0.032 0.409 -0.034
1525745871.702 0.000 -0.000 -0.002 -0.032 0.409 -0.034
1525745871.712 0.000 -0.000 -0.002 -0.030 0.411 -0.039
1525745871.722 0.000 -0.000 -0.002 -0.030 0.411 -0.039
1525745871.732 0.000 -0.000 -0.002 -0.030 0.411 -0.039
1525745871.742 0.000 -0.000 -0.002 -0.030 0.411 -0.039
1525745871.752 0.000 -0.000 -0.002 -0.030 0.411 -0.039
1525745871.762 0.000 -0.000 -0.002 -0.035 0.418 -0.046
1525745871.772 0.000 -0.000 -0.002 -0.035 0.418 -0.046
1525745871.782 0.000 -0.000 -0.002 -0.035 0.418 -0.046
1525745871.792 0.000 -0.000 -0.002 -0.035 0.418 -0.046
1525745871.802 0.000 -0.000 -0.002 -0.035 0.418 -0.046
1525745871.812 0.000 -0.000 -0.002 -0.044 0.425 -0.051
1525745871.822 0.000 -0.000 -0.002 -0.044 0.425 -0.051
1525745871.832 0.000 -0.000 -0.002 -0.044 0.425 -0.051
1525745871.842 0.000 -0.000 -0.002 -0.044 0.425 -0.051
1525745871.852 0.000 -0.000 -0.002 -0.044 0.425 -0.051
1525745871.862 0.000 -0.000 -0.002 -0.056 0.431 -0.054
1525745871.872 0.000 -0.000 -0.002 -0.056 0.431 -0.054
1525745871.882 0.000 -0.000 -0.002 -0.056 0.431 -0.054
1525745871.892 0.000 -0.000 -0.002 -0.056 0.431 -0.054
1525745871.902 0.000 -0.000 -0.002 -0.056 0.431 -0.054
1525745871.912 0.000 -0.000 -0.002 -0.070 0.436 -0.056
1525745871.922 0.000 -0.000 -0.002 -0.070 0.436 -0.056
1525745871.932 0.000 -0.000 -0.002 -0.070 0.436 -0.056
1525745871.942 0.000 -0.000 -0.002 -0.070 0.436 -0.056
1525745871.952 0.000 -0.000 -0.002 -0.070 0.436 -0.056
1525745871.962 0.000 -0.000 -0.002 -0.083 0.438 -0.056
1525745871.972 0.000 -0.000 -0.002 -0.083 0.438 -0.056
1525745871.982 0.000 -0.000 -0.002 -0.083 0.438 -0.056
1525745871.992 0.000 -0.000 -0.002 -0.083 0.438 -0.056
1525745872.002 0.000 -0.000 -0.002 -0.083 0.438 -0.056
1525745872.012 0.000 -0.000 -0.002 -0.095 0.439 -0.054
1525745872.022 0.000 -0.000 -0.002 -0.095 0.439 -0.054
1525745872.032 0.000 -0.000 -0.002 -0.095 0.439 -0.054
1525745872.042 0.000 -0.000 -0.002 -0.095 0.439 -0.054
1525745872.052 0.000 -0.000 -0.002 -0.095 0.439 -0.054
1525745872.062 0.000 -0.000 -0.002 -0.107 0.440 -0.050
1525745872.072 0.000 -0.000 -0.002 -0.107 0.440 -0.050
1525745872.082 0.000 -0.000 -0.002 -0.107 0.440 -0.050
1525745872.092 0.000 -0.000 -0.002 -0.107 0.440 -0.050
1525745872.102 0.000 -0.000 -0.002 -0.107 0.440 -0.050
1525745872.112 0.000 -0.000 -0.002 -0.117 0.441 -0.045
1525745872.122 0.000 -0.000 -0.002 -0.117 0.441 -0.045
1525745872.132 0.000 -0.000 -0.002 -0.117 0.441 -0.045
1525745872.142 0.000 -0.000 -0.002 -0.117 0.441 -0.045
1525745872.152 0.000 -0.000 -0.002 -0.117 0.441 -0.045
1525745872.162 0.000 -0.000 -0.002 -0.129 0.441 -0.041
1525745872.172 0.000 -0.000 -0.002 -0.129 0.441 -0.041
1525745872.182 0.000 -0.000 -0.002 -0.129 0.441 -0.041
1525745872.192 0.000 -0.000 -0.002 -0.129 0.441 -0.041
1525745872.202 0.000 -0.000 -0.002 -0.129 0.441 -0.041
1525745872.212 0.000 -0.000 -0.002 -0.142 0.440 -0.037
1525745872.222 0.000 -0.000 -0.002 -0.142 0.440 -0.037
1525745872.232 0.000 -0.000 -0.002 -0.142 0.440 -0.037
1525745872.242 0.000 -0.000 -0.002 -0.142 0.440 -0.037
1525745872.252 0.000 -0.000 -0.002 -0.142 0.440 -0.037
1525745872.262 -0.000 -0.000 -0.002 -0.157 0.442 -0.034
1525745872.272 -0.000 -0.000 -0.002 -0.157 0.442 -0.034
1525745872.282 -0.000 -0.000 -0.002 -0.157 0.442 -0.034
1525745872.292 -0.000 -0.000 -0.002 -0.157 0.442 -0.034
1525745872.302 -0.000 -0.000 -0.002 -0.157 0.442 -0.034
1525745872.312 -0.000 -0.000 -0.002 -0.176 0.440 -0.033
1525745872.322 -0.000 -0.000 -0.002 -0.176 0.440 -0.033
1525745872.332 -0.000 -0.000 -0.002 -0.176 0.440 -0.033
1525745872.342 -0.000 -0.000 -0.002 -0.176 0.440 -0.033
1525745872.352 -0.000 -0.000 -0.002 -0.176 0.440 -0.033
1525745872.362 -0.000 -0.000 -0.002 -0.196 0.432 -0.034
1525745872.372 -0.000 -0.000 -0.002 -0.196 0.432 -0.034
1525745872.382 -0.000 -0.000 -0.002 -0.196 0.432 -0.034
1525745872.392 -0.000 -0.000 -0.002 -0.196 0.432 -0.034
1525745872.402 -0.000 -0.000 -0.002 -0.196 0.432 -0.034
1525745872.412 -0.000 -0.000 -0.002 -0.216 0.422 -0.035
1525745872.422 -0.000 -0.000 -0.002 -0.216 0.422 -0.035
1525745872.432 -0.000 -0.000 -0.002 -0.216 0.422 -0.035
1525745872.442 -0.000 -0.000 -0.002 -0.216 0.422 -0.035
1525745872.452 -0.000 -0.000 -0.002 -0.216 0.422 -0.035
1525745872.462 -0.000 -0.000 -0.002 -0.234 0.411 -0.037
1525745872.472 -0.000 -0.000 -0.002 -0.234 0.411 -0.037
1525745872.482 -0.000 -0.000 -0.002 -0.234 0.411 -0.037
1525745872.492 -0.000 -0.000 -0.002 -0.234 0.411 -0.037
1525745872.502 -0.000 -0.000 -0.002 -0.234 0.411 -0.037
1525745872.512 -0.000 -0.000 -0.002 -0.247 0.401 -0.038
1525745872.522 -0.000 -0.000 -0.002 -0.247 0.401 -0.038
1525745872.532 -0.000 -0.000 -0.002 -0.247 0.401 -0.038
1525745872.542 -0.000 -0.000 -0.002 -0.247 0.401 -0.038
1525745872.552 -0.000 -0.000 -0.002 -0.247 0.401 -0.038
1525745872.562 -0.000 -0.000 -0.002 -0.258 0.396 -0.032
1525745872.572 -0.000 -0.000 -0.002 -0.258 0.396 -0.032
1525745872.582 -0.000 -0.000 -0.002 -0.258 0.396 -0.032
1525745872.592 -0.000 -0.000 -0.002 -0.258 0.396 -0.032
1525745872.602 -0.000 -0.000 -0.002 -0.258 0.396 -0.032
1525745872.612 -0.000 -0.000 -0.003 -0.277 0.396 -0.024
1525745872.622 -0.000 -0.000 -0.003 -0.277 0.396 -0.024
1525745872.632 -0.000 -0.000 -0.003 -0.277 0.396 -0.024
1525745872.642 -0.000 -0.000 -0.003 -0.277 0.396 -0.024
1525745872.652 -0.000 -0.000 -0.003 -0.277 0.396 -0.024
1525745872.662 -0.000 -0.000 -0.003 -0.302 0.387 -0.018
1525745872.672 -0.000 -0.000 -0.003 -0.302 0.387 -0.018
1525745872.682 -0.000 -0.000 -0.003 -0.302 0.387 -0.018
1525745872.692 -0.000 -0.000 -0.003 -0.302 0.387 -0.018
1525745872.702 -0.000 -0.000 -0.003 -0.302 0.387 -0.018
1525745872.712 -0.000 0.000 -0.003 -0.323 0.371 -0.014
1525745872.722 -0.000 0.000 -0.003 -0.323 0.371 -0.014
1525745872.732 -0.000 0.000 -0.003 -0.323 0.371 -0.014
1525745872.742 -0.000 0.000 -0.003 -0.323 0.371 -0.014
1525745872.752 -0.000 0.000 -0.003 -0.323 0.371 -0.014
1525745872.762 -0.000 0.000 -0.003 -0.340 0.348 -0.013
1525745872.772 -0.000 0.000 -0.003 -0.340 0.348 -0.013
1525745872.782 -0.000 0.000 -0.003 -0.340 0.348 -0.013
1525745872.792 -0.000 0.000 -0.003 -0.340 0.348 -0.013
1525745872.802 -0.000 0.000 -0.003 -0.340 0.348 -0.013
1525745872.812 -0.000 0.000 -0.003 -0.357 0.322 -0.012
1525745872.822 -0.000 0.000 -0.003 -0.357 0.322 -0.012
1525745872.832 -0.000 0.000 -0.003 -0.357 0.322 -0.012
1525745872.842 -0.000 0.000 -0.003 -0.357 0.322 -0.012
1525745872.852 -0.000 0.000 -0.003 -0.357 0.322 -0.012
1525745872.862 -0.001 0.000 -0.003 -0.371 0.300 -0.006
1525745872.872 -0.001 0.000 -0.003 -0.371 0.300 -0.006
1525745872.882 -0.001 0.000 -0.003 -0.371 0.300 -0.006
1525745872.892 -0.001 0.000 -0.003 -0.371 0.300 -0.006
1525745872.902 -0.001 0.000 -0.003 -0.371 0.300 -0.006
1525745872.912 -0.001 0.000 -0.003 -0.371 0.272 -0.001
1525745872.922 -0.001 0.000 -0.003 -0.371 0.272 -0.001
1525745872.932 -0.001 0.000 -0.003 -0.371 0.272 -0.001
1525745872.942 -0.001 0.000 -0.003 -0.371 0.272 -0.001
1525745872.952 -0.001 0.000 -0.003 -0.371 0.272 -0.001
1525745872.962 -0.001 0.000 -0.003 -0.367 0.247 0.003
1525745872.972 -0.001 0.000 -0.003 -0.367 0.247 0.003
1525745872.982 -0.001 0.000 -0.003 -0.367 0.247 0.003
1525745872.992 -0.001 0.000 -0.003 -0.367 0.247 0.003
1525745873.002 -0.001 0.000 -0.003 -0.367 0.247 0.003
1525745873.012 -0.001 0.000 -0.003 -0.360 0.216 0.007
1525745873.022 -0.001 0.000 -0.003 -0.360 0.216 0.007
1525745873.032 -0.001 0.000 -0.003 -0.360 0.216 0.007
1525745873.042 -0.001 0.000 -0.003 -0.360 0.216 0.007
1525745873.052 -0.001 0.000 -0.003 -0.360 0.216 0.007
1525745873.062 -0.001 0.000 -0.004 -0.339 0.178 0.010
1525745873.072 -0.001 0.000 -0.004 -0.339 0.178 0.010
1525745873.082 -0.001 0.000 -0.004 -0.339 0.178 0.010
1525745873.092 -0.001 0.000 -0.004 -0.339 0.178 0.010
1525745873.102 -0.001 0.000 -0.004 -0.339 0.178 0.010
1525745873.112 -0.001 0.000 -0.004 -0.319 0.146 0.016
1525745873.122 -0.001 0.000 -0.004 -0.319 0.146 0.016
1525745873.132 -0.001 0.000 -0.004 -0.319 0.146 0.016
1525745873.142 -0.001 0.000 -0.004 -0.319 0.146 0.016
1525745873.152 -0.001 0.000 -0.004 -0.319 0.146 0.016
1525745873.162 -0.001 0.000 -0.004 -0.292 0.113 0.022
1525745873.172 -0.001 0.000 -0.004 -0.292 0.113 0.022
1525745873.182 -0.001 0.000 -0.004 -0.292 0.113 0.022
1525745873.192 -0.001 0.000 -0.004 -0.292 0.113 0.022
1525745873.202 -0.001 0.000 -0.004 -0.292 0.113 0.022
1525745873.212 -0.001 0.000 -0.004 -0.252 0.079 0.025
1525745873.222 -0.001 0.000 -0.004 -0.252 0.079 0.025
1525745873.232 -0.001 0.000 -0.004 -0.252 0.079 0.025
1525745873.242 -0.001 0.000 -0.004 -0.252 0.079 0.025
1525745873.252 -0.001 0.000 -0.004 -0.252 0.079 0.025
1525745873.262 -0.001 0.000 -0.005 -0.210 0.039 0.030
1525745873.272 -0.001 0.000 -0.005 -0.210 0.039 0.030
1525745873.282 -0.001 0.000 -0.005 -0.210 0.039 0.030
1525745873.292 -0.001 0.000 -0.005 -0.210 0.039 0.030
1525745873.302 -0.001 0.000 -0.005 -0.210 0.039 0.030
1525745873.312 -0.001 0.000 -0.005 -0.174 0.005 0.034
1525745873.322 -0.001 0.000 -0.005 -0.174 0.005 0.034
1525745873.332 -0.001 0.000 -0.005 -0.174 0.005 0.034
1525745873.342 -0.001 0.000 -0.005 -0.174 0.005 0.034
1525745873.352 -0.001 0.000 -0.005 -0.174 0.005 0.034
1525745873.362 -0.001 0.000 -0.005 -0.139 -0.030 0.039
1525745873.372 -0.001 0.000 -0.005 -0.139 -0.030 0.039
1525745873.382 -0.001 0.000 -0.005 -0.139 -0.030 0.039
1525745873.392 -0.001 0.000 -0.005 -0.139 -0.030 0.039
1525745873.402 -0.001 0.000 -0.005 -0.139 -0.030 0.039
1525745873.412 -0.001 0.000 -0.006 -0.106 -0.062 0.041
1525745873.422 -0.001 0.000 -0.006 -0.106 -0.062 0.041
1525745873.432 -0.001 0.000 -0.006 -0.106 -0.062 0.041
1525745873.442 -0.001 0.000 -0.006 -0.106 -0.062 0.041
1525745873.452 -0.001 0.000 -0.006 -0.106 -0.062 0.041
1525745873.462 -0.001 0.000 -0.006 -0.079 -0.089 0.043
1525745873.472 -0.001 0.000 -0.006 -0.079 -0.089 0.043
1525745873.482 -0.001 0.000 -0.006 -0.079 -0.089 0.043
1525745873.492 -0.001 0.000 -0.006 -0.079 -0.089 0.043
1525745873.502 -0.001 0.000 -0.006 -0.079 -0.089 0.043
1525745873.512 -0.001 0.000 -0.006 -0.054 -0.114 0.043
1525745873.522 -0.001 0.000 -0.006 -0.054 -0.114 0.043
1525745873.532 -0.001 0.000 -0.006 -0.054 -0.114 0.043
1525745873.542 -0.001 0.000 -0.006 -0.054 -0.114 0.043
1525745873.552 -0.001 0.000 -0.006 -0.054 -0.114 0.043
1525745873.562 -0.001 0.000 -0.006 -0.035 -0.128 0.042
1525745873.572 -0.001 0.000 -0.006 -0.035 -0.128 0.042
1525745873.582 -0.001 0.000 -0.006 -0.035 -0.128 0.042
1525745873.592 -0.001 0.000 -0.006 -0.035 -0.128 0.042
1525745873.602 -0.001 0.000 -0.006 -0.035 -0.128 0.042
1525745873.612 -0.001 0.000 -0.006 -0.017 -0.143 0.038
1525745873.622 -0.001 0.000 -0.006 -0.017 -0.143 0.038
1525745873.632 -0.001 0.000 -0.006 -0.017 -0.143 0.038
1525745873.642 -0.001 0.000 -0.006 -0.017 -0.143 0.038
1525745873.652 -0.001 0.000 -0.006 -0.017 -0.143 0.038
1525745873.662 -0.001 0.000 -0.007 0.003 -0.156 0.032
1525745873.672 -0.001 0.000 -0.007 0.003 -0.156 0.032
1525745873.682 -0.001 0.000 -0.007 0.003 -0.156 0.032
1525745873.692 -0.001 0.000 -0.007 0.003 -0.156 0.032
1525745873.702 -0.001 0.000 -0.007 0.003 -0.156 0.032
1525745873.712 -0.001 0.000 -0.007 0.021 -0.173 0.024
1525745873.722 -0.001 0.000 -0.007 0.021 -0.173 0.024
1525745873.732 -0.001 0.000 -0.007 0.021 -0.173 0.024
1525745873.742 -0.001 0.000 -0.007 0.021 -0.173 0.024
1525745873.752 -0.001 0.000 -0.007 0.021 -0.173 0.024
1525745873.762 -0.001 0.000 -0.007 0.034 -0.191 0.020
1525745873.772 -0.001 0.000 -0.007 0.034 -0.191 0.020
1525745873.782 -0.001 0.000 -0.007 0.034 -0.191 0.020
1525745873.792 -0.001 0.000 -0.007 0.034 -0.191 0.020
1525745873.802 -0.001 0.000 -0.007 0.034 -0.191 0.020
1525745873.812 -0.001 -0.000 -0.007 0.043 -0.204 0.016
1525745873.822 -0.001 -0.000 -0.007 0.043 -0.204 0.016
1525745873.832 -0.001 -0.000 -0.007 0.043 -0.204 0.016
1525745873.842 -0.001 -0.000 -0.007 0.043 -0.204 0.016
1525745873.852 -0.001 -0.000 -0.007 0.043 -0.204 0.016
1525745873.862 -0.001 -0.000 -0.007 0.051 -0.212 0.013
1525745873.872 -0.001 -0.000 -0.007 0.051 -0.212 0.013
1525745873.882 -0.001 -0.000 -0.007 0.051 -0.212 0.013
1525745873.892 -0.001 -0.000 -0.007 0.051 -0.212 0.013
1525745873.902 -0.001 -0.000 -0.007 0.051 -0.212 0.013
1525745873.912 -0.001 -0.000 -0.007 0.060 -0.220 0.013
1525745873.922 -0.001 -0.000 -0.007 0.060 -0.220 0.013
1525745873.932 -0.001 -0.000 -0.007 0.060 -0.220 0.013
1525745873.942 -0.001 -0.000 -0.007 0.060 -0.220 0.013
1525745873.952 -0.001 -0.000 -0.007 0.060 -0.220 0.013
1525745873.962 -0.000 -0.000 -0.007 0.067 -0.225 0.014
1525745873.972 -0.000 -0.000 -0.007 0.067 -0.225 0.014
1525745873.982 -0.000 -0.000 -0.007 0.067 -0.225 0.014
1525745873.992 -0.000 -0.000 -0.007 0.067 -0.225 0.014
1525745874.002 -0.000 -0.000 -0.007 0.067 -0.225 0.014
1525745874.012 -0.000 -0.000 -0.007 0.073 -0.228 0.014
1525745874.022 -0.000 -0.000 -0.007 0.073 -0.228 0.014
1525745874.032 -0.000 -0.000 -0.007 0.073 -0.228 0.014
1525745874.042 -0.000 -0.000 -0.007 0.073 -0.228 0.014
1525745874.052 -0.000 -0.000 -0.007 0.073 -0.228 0.014
1525745874.062 -0.000 -0.000 -0.007 0.078 -0.229 0.013
1525745874.072 -0.000 -0.000 -0.007 0.078 -0.229 0.013
1525745874.082 -0.000 -0.000 -0.007 0.078 -0.229 0.013
1525745874.092 -0.000 -0.000 -0.007 0.078 -0.229 0.013
1525745874.102 -0.000 -0.000 -0.007 0.078 -0.229 0.013
1525745874.112 -0.000 -0.000 -0.007 0.085 -0.231 0.012
1525745874.122 -0.000 -0.000 -0.007 0.085 -0.231 0.012
1525745874.132 -0.000 -0.000 -0.007 0.085 -0.231 0.012
1525745874.142 -0.000 -0.000 -0.007 0.085 -0.231 0.012
1525745874.152 -0.000 -0.000 -0.007 0.085 -0.231 0.012
1525745874.162 -0.000 -0.000 -0.007 0.091 -0.234 0.009
1525745874.172 -0.000 -0.000 -0.007 0.091 -0.234 0.009
1525745874.182 -0.000 -0.000 -0.007 0.091 -0.234 0.009
1525745874.192 -0.000 -0.000 -0.007 0.091 -0.234 0.009
1525745874.202 -0.000 -0.000 -0.007 0.091 -0.234 0.009
1525745874.212 -0.000 -0.000 -0.007 0.097 -0.232 0.005
1525745874.222 -0.000 -0.000 -0.007 0.097 -0.232 0.005
1525745874.232 -0.000 -0.000 -0.007 0.097 -0.232 0.005
1525745874.242 -0.000 -0.000 -0.007 0.097 -0.232 0.005
1525745874.252 -0.000 -0.000 -0.007 0.097 -0.232 0.005
1525745874.262 -0.000 -0.000 -0.007 0.098 -0.235 0.001
1525745874.272 -0.000 -0.000 -0.007 0.098 -0.235 0.001
1525745874.282 -0.000 -0.000 -0.007 0.098 -0.235 0.001
1525745874.292 -0.000 -0.000 -0.007 0.098 -0.235 0.001
1525745874.302 -0.000 -0.000 -0.007 0.098 -0.235 0.001
1525745874.312 -0.000 -0.000 -0.007 0.095 -0.240 -0.003
1525745874.322 -0.000 -0.000 -0.007 0.095 -0.240 -0.003
1525745874.332 -0.000 -0.000 -0.007 0.095 -0.240 -0.003
1525745874.342 -0.000 -0.000 -0.007 0.095 -0.240 -0.003
1525745874.352 -0.000 -0.000 -0.007 0.095 -0.240 -0.003
1525745874.362 -0.000 -0.000 -0.007 0.088 -0.239 -0.008
1525745874.372 -0.000 -0.000 -0.007 0.088 -0.239 -0.008
1525745874.382 -0.000 -0.000 -0.007 0.088 -0.239 -0.008
1525745874.392 -0.000 -0.000 -0.007 0.088 -0.239 -0.008
1525745874.402 -0.000 -0.000 -0.007 0.088 -0.239 -0.008
1525745874.412 -0.000 -0.000 -0.007 0.082 -0.236 -0.012
1525745874.422 -0.000 -0.000 -0.007 0.082 -0.236 -0.012
1525745874.432 -0.000 -0.000 -0.007 0.082 -0.236 -0.012
1525745874.442 -0.000 -0.000 -0.007 0.082 -0.236 -0.012
1525745874.452 -0.000 -0.000 -0.007 0.082 -0.236 -0.012
1525745874.462 -0.000 -0.000 -0.007 0.078 -0.237 -0.017
1525745874.472 -0.000 -0.000 -0.007 0.078 -0.237 -0.017
1525745874.482 -0.000 -0.000 -0.007 0.078 -0.237 -0.017
1525745874.492 -0.000 -0.000 -0.007 0.078 -0.237 -0.017
1525745874.502 -0.000 -0.000 -0.007 0.078 -0.237 -0.017
1525745874.512 -0.000 -0.000 -0.007 0.071 -0.239 -0.021
1525745874.522 -0.000 -0.000 -0.007 0.071 -0.239 -0.021
1525745874.532 -0.000 -0.000 -0.007 0.071 -0.239 -0.021
1525745874.542 -0.000 -0.000 -0.007 0.071 -0.239 -0.021
1525745874.552 -0.000 -0.000 -0.007 0.071 -0.239 -0.021
1525745874.562 -0.000 -0.000 -0.007 0.060 -0.240 -0.023
1525745874.572 -0.000 -0.000 -0.007 0.060 -0.240 -0.023
1525745874.582 -0.000 -0.000 -0.007 0.060 -0.240 -0.023
1525745874.592 -0.000 -0.000 -0.007 0.060 -0.240 -0.023
1525745874.602 -0.000 -0.000 -0.007 0.060 -0.240 -0.023
1525745874.612 -0.000 -0.000 -0.007 0.047 -0.238 -0.023
1525745874.622 -0.000 -0.000 -0.007 0.047 -0.238 -0.023
1525745874.632 -0.000 -0.000 -0.007 0.047 -0.238 -0.023
1525745874.642 -0.000 -0.000 -0.007 0.047 -0.238 -0.023
1525745874.652 -0.000 -0.000 -0.007 0.047 -0.238 -0.023
1525745874.662 -0.000 -0.000 -0.007 0.041 -0.234 -0.025
1525745874.672 -0.000 -0.000 -0.007 0.041 -0.234 -0.025
1525745874.682 -0.000 -0.000 -0.007 0.041 -0.234 -0.025
1525745874.692 -0.000 -0.000 -0.007 0.041 -0.234 -0.025
1525745874.702 -0.000 -0.000 -0.007 0.041 -0.234 -0.025
1525745874.712 -0.000 -0.000 -0.007 0.040 -0.229 -0.029
1525745874.722 -0.000 -0.000 -0.007 0.040 -0.229 -0.029
1525745874.732 -0.000 -0.000 -0.007 0.040 -0.229 -0.029
1525745874.742 -0.000 -0.000 -0.007 0.040 -0.229 -0.029
1525745874.752 -0.000 -0.000 -0.007 0.040 -0.229 -0.029
1525745874.762 -0.000 -0.000 -0.007 0.039 -0.226 -0.032
1525745874.772 -0.000 -0.000 -0.007 0.039 -0.226 -0.032
1525745874.782 -0.000 -0.000 -0.007 0.039 -0.226 -0.032
1525745874.792 -0.000 -0.000 -0.007 0.039 -0.226 -0.032
1525745874.802 -0.000 -0.000 -0.007 0.039 -0.226 -0.032
1525745874.812 -0.000 -0.000 -0.007 0.038 -0.226 -0.037
1525745874.822 -0.000 -0.000 -0.007 0.038 -0.226 -0.037
1525745874.832 -0.000 -0.000 -0.007 0.038 -0.226 -0.037
1525745874.842 -0.000 -0.000 -0.007 0.038 -0.226 -0.037
1525745874.852 -0.000 -0.000 -0.007 0.038 -0.226 -0.037
1525745874.862 -0.000 -0.000 -0.007 0.036 -0.224 -0.041
1525745874.872 -0.000 -0.000 -0.007 0.036 -0.224 -0.041
1525745874.882 -0.000 -0.000 -0.007 0.036 -0.224 -0.041
1525745874.892 -0.000 -0.000 -0.007 0.036 -0.224 -0.041
1525745874.902 -0.000 -0.000 -0.007 0.036 -0.224 -0.041
1525745874.912 -0.000 -0.000 -0.007 0.034 -0.224 -0.046
1525745874.922 -0.000 -0.000 -0.007 0.034 -0.224 -0.046
1525745874.932 -0.000 -0.000 -0.007 0.034 -0.224 -0.046
1525745874.942 -0.000 -0.000 -0.007 0.034 -0.224 -0.046
1525745874.952 -0.000 -0.000 -0.007 0.034 -0.224 -0.046
1525745874.962 -0.000 -0.000 -0.007 0.029 -0.225 -0.052
1525745874.972 -0.000 -0.000 -0.007 0.029 -0.225 -0.052
1525745874.982 -0.000 -0.000 -0.007 0.029 -0.225 -0.052
1525745874.992 -0.000 -0.000 -0.007 0.029 -0.225 -0.052
1525745875.002 -0.000 -0.000 -0.007 0.029 -0.225 -0.052
1525745875.012 -0.000 -0.000 -0.007 0.025 -0.226 -0.058
1525745875.022 -0.000 -0.000 -0.007 0.025 -0.226 -0.058
1525745875.032 -0.000 -0.000 -0.007 0.025 -0.226 -0.058
1525745875.042 -0.000 -0.000 -0.007 0.025 -0.226 -0.058
1525745875.052 -0.000 -0.000 -0.007 0.025 -0.226 -0.058
1525745875.062 -0.000 -0.000 -0.007 0.023 -0.229 -0.064
1525745875.072 -0.000 -0.000 -0.007 0.023 -0.229 -0.064
1525745875.082 -0.000 -0.000 -0.007 0.023 -0.229 -0.064
1525745875.092 -0.000 -0.000 -0.007 0.023 -0.229 -0.064
1525745875.102 -0.000 -0.000 -0.007 0.023 -0.229 -0.064
1525745875.112 -0.000 -0.000 -0.007 0.024 -0.236 -0.069
1525745875.122 -0.000 -0.000 -0.007 0.024 -0.236 -0.069
1525745875.132 -0.000 -0.000 -0.007 0.024 -0.236 -0.069
1525745875.142 -0.000 -0.000 -0.007 0.024 -0.236 -0.069
1525745875.152 -0.000 -0.000 -0.007 0.024 -0.236 -0.069
1525745875.162 -0.000 -0.000 -0.007 0.027 -0.243 -0.074
1525745875.172 -0.000 -0.000 -0.007 0.027 -0.243 -0.074
1525745875.182 -0.000 -0.000 -0.007 0.027 -0.243 -0.074
1525745875.192 -0.000 -0.000 -0.007 0.027 -0.243 -0.074
1525745875.202 -0.000 -0.000 -0.007 0.027 -0.243 -0.074
1525745875.212 -0.000 -0.000 -0.007 0.027 -0.252 -0.078
1525745875.222 -0.000 -0.000 -0.007 0.027 -0.252 -0.078
1525745875.232 -0.000 -0.000 -0.007 0.027 -0.252 -0.078
1525745875.242 -0.000 -0.000 -0.007 0.027 -0.252 -0.078
1525745875.252 -0.000 -0.000 -0.007 0.027 -0.252 -0.078
1525745875.262 -0.000 -0.000 -0.007 0.025 -0.263 -0.081
1525745875.272 -0.000 -0.000 -0.007 0.025 -0.263 -0.081
1525745875.282 -0.000 -0.000 -0.007 0.025 -0.263 -0.081
1525745875.292 -0.000 -0.000 -0.007 0.025 -0.263 -0.081
1525745875.302 -0.000 -0.000 -0.007 0.025 -0.263 -0.081
1525745875.312 -0.000 -0.000 -0.007 0.017 -0.270 -0.083
1525745875.322 -0.000 -0.000 -0.007 0.017 -0.270 -0.083
1525745875.332 -0.000 -0.000 -0.007 0.017 -0.270 -0.083
1525745875.342 -0.000 -0.000 -0.007 0.017 -0.270 -0.083
1525745875.352 -0.000 -0.000 -0.007 0.017 -0.270 -0.083
1525745875.362 -0.000 -0.000 -0.007 0.007 -0.271 -0.084
1525745875.372 -0.000 -0.000 -0.007 0.007 -0.271 -0.084
1525745875.382 -0.000 -0.000 -0.007 0.007 -0.271 -0.084
1525745875.392 -0.000 -0.000 -0.007 0.007 -0.271 -0.084
1525745875.402 -0.000 -0.000 -0.007 0.007 -0.271 -0.084
1525745875.412 -0.000 -0.000 -0.007 -0.001 -0.264 -0.083
1525745875.422 -0.000 -0.000 -0.007 -0.001 -0.264 -0.083
1525745875.432 -0.000 -0.000 -0.007 -0.001 -0.264 -0.083
1525745875.442 -0.000 -0.000 -0.007 -0.001 -0.264 -0.083
1525745875.452 -0.000 -0.000 -0.007 -0.001 -0.264 -0.083
1525745875.462 -0.000 -0.000 -0.007 0.000 -0.254 -0.084
1525745875.472 -0.000 -0.000 -0.007 0.000 -0.254 -0.084
1525745875.482 -0.000 -0.000 -0.007 0.000 -0.254 -0.084
1525745875.492 -0.000 -0.000 -0.007 0.000 -0.254 -0.084
1525745875.502 -0.000 -0.000 -0.007 0.000 -0.254 -0.084
1525745875.512 -0.000 -0.000 -0.007 0.004 -0.241 -0.085
1525745875.522 -0.000 -0.000 -0.007 0.004 -0.241 -0.085
1525745875.532 -0.000 -0.000 -0.007 0.004 -0.241 -0.085
1525745875.542 -0.000 -0.000 -0.007 0.004 -0.241 -0.085
1525745875.552 -0.000 -0.000 -0.007 0.004 -0.241 -0.085
1525745875.562 -0.000 -0.000 -0.007 0.007 -0.225 -0.085
1525745875.572 -0.000 -0.000 -0.007 0.007 -0.225 -0.085
1525745875.582 -0.000 -0.000 -0.007 0.007 -0.225 -0.085
1525745875.592 -0.000 -0.000 -0.007 0.007 -0.225 -0.085
1525745875.602 -0.000 -0.000 -0.007 0.007 -0.225 -0.085
1525745875.612 -0.000 -0.000 -0.007 -0.000 -0.207 -0.082
1525745875.622 -0.000 -0.000 -0.007 -0.000 -0.207 -0.082
1525745875.632 -0.000 -0.000 -0.007 -0.000 -0.207 -0.082
1525745875.642 -0.000 -0.000 -0.007 -0.000 -0.207 -0.082
1525745875.652 -0.000 -0.000 -0.007 -0.000 -0.207 -0.082
1525745875.662 0.000 -0.000 -0.008 -0.022 -0.187 -0.083
1525745875.672 0.000 -0.000 -0.008 -0.022 -0.187 -0.083
1525745875.682 0.000 -0.000 -0.008 -0.022 -0.187 -0.083
1525745875.692 0.000 -0.000 -0.008 -0.022 -0.187 -0.083
1525745875.702 0.000 -0.000 -0.008 -0.022 -0.187 -0.083
1525745875.712 0.000 -0.000 -0.007 -0.043 -0.202 -0.086
1525745875.722 0.000 -0.000 -0.007 -0.043 -0.202 -0.086
1525745875.732 0.000 -0.000 -0.007 -0.043 -0.202 -0.086
1525745875.742 0.000 -0.000 -0.007 -0.043 -0.202 -0.086
1525745875.752 0.000 -0.000 -0.007 -0.043 -0.202 -0.086
1525745875.762 -0.000 -0.000 -0.007 -0.038 -0.232 -0.081
1525745875.772 -0.000 -0.000 -0.007 -0.038 -0.232 -0.081
1525745875.782 -0.000 -0.000 -0.007 -0.038 -0.232 -0.081
1525745875.792 -0.000 -0.000 -0.007 -0.038 -0.232 -0.081
1525745875.802 -0.000 -0.000 -0.007 -0.038 -0.232 -0.081
1525745875.812 -0.000 -0.000 -0.007 -0.017 -0.233 -0.068
1525745875.822 -0.000 -0.000 -0.007 -0.017 -0.233 -0.068
1525745875.832 -0.000 -0.000 -0.007 -0.017 -0.233 -0.068
1525745875.842 -0.000 -0.000 -0.007 -0.017 -0.233 -0.068
1525745875.852 -0.000 -0.000 -0.007 -0.017 -0.233 -0.068
1525745875.862 -0.000 -0.000 -0.007 0.004 -0.219 -0.051
1525745875.872 -0.000 -0.000 -0.007 0.004 -0.219 -0.051
1525745875.882 -0.000 -0.000 -0.007 0.004 -0.219 -0.051
1525745875.892 -0.000 -0.000 -0.007 0.004 -0.219 -0.051
1525745875.902 -0.000 -0.000 -0.007 0.004 -0.219 -0.051
1525745875.912 -0.000 -0.000 -0.008 0.013 -0.199 -0.033
1525745875.922 -0.000 -0.000 -0.008 0.013 -0.199 -0.033
1525745875.932 -0.000 -0.000 -0.008 0.013 -0.199 -0.033
1525745875.942 -0.000 -0.000 -0.008 0.013 -0.199 -0.033
1525745875.952 -0.000 -0.000 -0.008 0.013 -0.199 -0.033
1525745875.962 -0.000 -0.000 -0.008 0.014 -0.177 -0.024
1525745875.972 -0.000 -0.000 -0.008 0.014 -0.177 -0.024
1525745875.982 -0.000 -0.000 -0.008 0.014 -0.177 -0.024
1525745875.992 -0.000 -0.000 -0.008 0.014 -0.177 -0.024
1525745876.002 -0.000 -0.000 -0.008 0.014 -0.177 -0.024
1525745876.012 -0.000 -0.000 -0.008 -0.000 -0.161 -0.026
1525745876.022 -0.000 -0.000 -0.008 -0.000 -0.161 -0.026
1525745876.032 -0.000 -0.000 -0.008 -0.000 -0.161 -0.026
1525745876.042 -0.000 -0.000 -0.008 -0.000 -0.161 -0.026
1525745876.052 -0.000 -0.000 -0.008 -0.000 -0.161 -0.026
1525745876.062 0.000 -0.000 -0.008 -0.026 -0.153 -0.037
1525745876.072 0.000 -0.000 -0.008 -0.026 -0.153 -0.037
1525745876.082 0.000 -0.000 -0.008 -0.026 -0.153 -0.037
1525745876.092 0.000 -0.000 -0.008 -0.026 -0.153 -0.037
1525745876.102 0.000 -0.000 -0.008 -0.026 -0.153 -0.037
1525745876.112 0.000 -0.000 -0.009 -0.077 -0.134 -0.053
1525745876.122 0.000 -0.000 -0.009 -0.077 -0.134 -0.053
1525745876.132 0.000 -0.000 -0.009 -0.077 -0.134 -0.053
1525745876.142 0.000 -0.000 -0.009 -0.077 -0.134 -0.053
1525745876.152 0.000 -0.000 -0.009 -0.077 -0.134 -0.053
1525745876.162 0.001 0.000 -0.010 -0.136 -0.118 -0.067
1525745876.172 0.001 0.000 -0.010 -0.136 -0.118 -0.067
1525745876.182 0.001 0.000 -0.010 -0.136 -0.118 -0.067
1525745876.192 0.001 0.000 -0.010 -0.136 -0.118 -0.067
1525745876.202 0.001 0.000 -0.010 -0.136 -0.118 -0.067
1525745876.212 0.001 0.000 -0.010 -0.152 -0.117 -0.072
1525745876.222 0.001 0.000 -0.010 -0.152 -0.117 -0.072
1525745876.232 0.001 0.000 -0.010 -0.152 -0.117 -0.072
1525745876.242 0.001 0.000 -0.010 -0.152 -0.117 -0.072
1525745876.252 0.001 0.000 -0.010 -0.152 -0.117 -0.072
1525745876.262 0.001 0.000 -0.010 -0.147 -0.111 -0.070
1525745876.272 0.001 0.000 -0.010 -0.147 -0.111 -0.070
1525745876.282 0.001 0.000 -0.010 -0.147 -0.111 -0.070
1525745876.292 0.001 0.000 -0.010 -0.147 -0.111 -0.070
1525745876.302 0.001 0.000 -0.010 -0.147 -0.111 -0.070
1525745876.312 0.000 0.000 -0.009 -0.105 -0.129 -0.071
1525745876.322 0.000 0.000 -0.009 -0.105 -0.129 -0.071
1525745876.332 0.000 0.000 -0.009 -0.105 -0.129 -0.071
1525745876.342 0.000 0.000 -0.009 -0.105 -0.129 -0.071
1525745876.352 0.000 0.000 -0.009 -0.105 -0.129 -0.071
1525745876.362 0.000 0.000 -0.009 -0.045 -0.155 -0.072
1525745876.372 0.000 0.000 -0.009 -0.045 -0.155 -0.072
1525745876.382 0.000 0.000 -0.009 -0.045 -0.155 -0.072
1525745876.392 0.000 0.000 -0.009 -0.045 -0.155 -0.072
1525745876.402 0.000 0.000 -0.009 -0.045 -0.155 -0.072
1525745876.412 0.000 0.000 -0.009 -0.035 -0.153 -0.062
1525745876.422 0.000 0.000 -0.009 -0.035 -0.153 -0.062
1525745876.432 0.000 0.000 -0.009 -0.035 -0.153 -0.062
1525745876.442 0.000 0.000 -0.009 -0.035 -0.153 -0.062
1525745876.452 0.000 0.000 -0.009 -0.035 -0.153 -0.062
1525745876.462 0.000 0.000 -0.009 -0.046 -0.146 -0.053
1525745876.472 0.000 0.000 -0.009 -0.046 -0.146 -0.053
1525745876.482 0.000 0.000 -0.009 -0.046 -0.146 -0.053
1525745876.492 0.000 0.000 -0.009 -0.046 -0.146 -0.053
1525745876.502 0.000 0.000 -0.009 -0.046 -0.146 -0.053
1525745876.512 0.000 0.000 -0.009 -0.060 -0.140 -0.048
1525745876.522 0.000 0.000 -0.009 -0.060 -0.140 -0.048
1525745876.532 0.000 0.000 -0.009 -0.060 -0.140 -0.048
1525745876.542 0.000 0.000 -0.009 -0.060 -0.140 -0.048
1525745876.552 0.000 0.000 -0.009 -0.060 -0.140 -0.048
1525745876.562 0.000 0.000 -0.009 -0.076 -0.129 -0.042
1525745876.572 0.000 0.000 -0.009 -0.076 -0.129 -0.042
1525745876.582 0.000 0.000 -0.009 -0.076 -0.129 -0.042
1525745876.592 0.000 0.000 -0.009 -0.076 -0.129 -0.042
1525745876.602 0.000 0.000 -0.009 -0.076 -0.129 -0.042
1525745876.612 0.000 -0.000 -0.009 -0.099 -0.115 -0.036
1525745876.622 0.000 -0.000 -0.009 -0.099 -0.115 -0.036
1525745876.632 0.000 -0.000 -0.009 -0.099 -0.115 -0.036
1525745876.642 0.000 -0.000 -0.009 -0.099 -0.115 -0.036
1525745876.652 0.000 -0.000 -0.009 -0.099 -0.115 -0.036
1525745876.662 0.000 -0.000 -0.009 -0.122 -0.102 -0.031
1525745876.672 0.000 -0.000 -0.009 -0.122 -0.102 -0.031
1525745876.682 0.000 -0.000 -0.009 -0.122 -0.102 -0.031
1525745876.692 0.000 -0.000 -0.009 -0.122 -0.102 -0.031
1525745876.702 0.000 -0.000 -0.009 -0.122 -0.102 -0.031
1525745876.712 0.000 -0.000 -0.009 -0.156 -0.089 -0.030
1525745876.722 0.000 -0.000 -0.009 -0.156 -0.089 -0.030
1525745876.732 0.000 -0.000 -0.009 -0.156 -0.089 -0.030
1525745876.742 0.000 -0.000 -0.009 -0.156 -0.089 -0.030
1525745876.752 0.000 -0.000 -0.009 -0.156 -0.089 -0.030
1525745876.762 0.000 -0.000 -0.009 -0.198 -0.072 -0.031
1525745876.772 0.000 -0.000 -0.009 -0.198 -0.072 -0.031
1525745876.782 0.000 -0.000 -0.009 -0.198 -0.072 -0.031
1525745876.792 0.000 -0.000 -0.009 -0.198 -0.072 -0.031
1525745876.802 0.000 -0.000 -0.009 -0.198 -0.072 -0.031
1525745876.812 0.000 -0.000 -0.009 -0.238 -0.057 -0.034
1525745876.822 0.000 -0.000 -0.009 -0.238 -0.057 -0.034
1525745876.832 0.000 -0.000 -0.009 -0.238 -0.057 -0.034
1525745876.842 0.000 -0.000 -0.009 -0.238 -0.057 -0.034
1525745876.852 0.000 -0.000 -0.009 -0.238 -0.057 -0.034
1525745876.862 0.000 -0.001 -0.009 -0.263 -0.045 -0.035
1525745876.872 0.000 -0.001 -0.009 -0.263 -0.045 -0.035
1525745876.882 0.000 -0.001 -0.009 -0.263 -0.045 -0.035
1525745876.892 0.000 -0.001 -0.009 -0.263 -0.045 -0.035
1525745876.902 0.000 -0.001 -0.009 -0.263 -0.045 -0.035
1525745876.912 0.000 -0.001 -0.009 -0.281 -0.037 -0.035
1525745876.922 0.000 -0.001 -0.009 -0.281 -0.037 -0.035
1525745876.932 0.000 -0.001 -0.009 -0.281 -0.037 -0.035
1525745876.942 0.000 -0.001 -0.009 -0.281 -0.037 -0.035
1525745876.952 0.000 -0.001 -0.009 -0.281 -0.037 -0.035
1525745876.962 0.000 -0.001 -0.009 -0.284 -0.030 -0.031
1525745876.972 0.000 -0.001 -0.009 -0.284 -0.030 -0.031
1525745876.982 0.000 -0.001 -0.009 -0.284 -0.030 -0.031
1525745876.992 0.000 -0.001 -0.009 -0.284 -0.030 -0.031
1525745877.002 0.000 -0.001 -0.009 -0.284 -0.030 -0.031
1525745877.012 0.000 -0.000 -0.010 -0.267 -0.023 -0.020
1525745877.022 0.000 -0.000 -0.010 -0.267 -0.023 -0.020
1525745877.032 0.000 -0.000 -0.010 -0.267 -0.023 -0.020
1525745877.042 0.000 -0.000 -0.010 -0.267 -0.023 -0.020
1525745877.052 0.000 -0.000 -0.010 -0.267 -0.023 -0.020
1525745877.062 0.000 -0.000 -0.010 -0.254 -0.015 -0.010
1525745877.072 0.000 -0.000 -0.010 -0.254 -0.015 -0.010
1525745877.082 0.000 -0.000 -0.010 -0.254 -0.015 -0.010
1525745877.092 0.000 -0.000 -0.010 -0.254 -0.015 -0.010
1525745877.102 0.000 -0.000 -0.010 -0.254 -0.015 -0.010
1525745877.112 0.000 -0.000 -0.010 -0.243 -0.006 -0.003
1525745877.122 0.000 -0.000 -0.010 -0.243 -0.006 -0.003
1525745877.132 0.000 -0.000 -0.010 -0.243 -0.006 -0.003
1525745877.142 0.000 -0.000 -0.010 -0.243 -0.006 -0.003
1525745877.152 0.000 -0.000 -0.010 -0.243 -0.006 -0.003
1525745877.162 0.000 -0.000 -0.010 -0.233 0.004 0.004
1525745877.172 0.000 -0.000 -0.010 -0.233 0.004 0.004
1525745877.182 0.000 -0.000 -0.010 -0.233 0.004 0.004
1525745877.192 0.000 -0.000 -0.010 -0.233 0.004 0.004
1525745877.202 0.000 -0.000 -0.010 -0.233 0.004 0.004
1525745877.212 0.000 -0.000 -0.010 -0.230 0.012 0.008
1525745877.222 0.000 -0.000 -0.010 -0.230 0.012 0.008
1525745877.232 0.000 -0.000 -0.010 -0.230 0.012 0.008
1525745877.242 0.000 -0.000 -0.010 -0.230 0.012 0.008
1525745877.252 0.000 -0.000 -0.010 -0.230 0.012 0.008
1525745877.262 0.000 -0.000 -0.010 -0.217 0.019 0.019
1525745877.272 0.000 -0.000 -0.010 -0.217 0.019 0.019
1525745877.282 0.000 -0.000 -0.010 -0.217 0.019 0.019
1525745877.292 0.000 -0.000 -0.010 -0.217 0.019 0.019
1525745877.302 0.000 -0.000 -0.010 -0.217 0.019 0.019
1525745877.312 0.000 -0.000 -0.010 -0.199 0.028 0.037
1525745877.322 0.000 -0.000 -0.010 -0.199 0.028 0.037
1525745877.332 0.000 -0.000 -0.010 -0.199 0.028 0.037
1525745877.342 0.000 -0.000 -0.010 -0.199 0.028 0.037
1525745877.352 0.000 -0.000 -0.010 -0.199 0.028 0.037
1525745877.362 0.000 -0.000 -0.010 -0.179 0.037 0.057
1525745877.372 0.000 -0.000 -0.010 -0.179 0.037 0.057
1525745877.382 0.000 -0.000 -0.010 -0.179 0.037 0.057
1525745877.392 0.000 -0.000 -0.010 -0.179 0.037 0.057
1525745877.402 0.000 -0.000 -0.010 -0.179 0.037 0.057
1525745877.412 0.000 -0.000 -0.010 -0.158 0.045 0.077
1525745877.422 0.000 -0.000 -0.010 -0.158 0.045 0.077
1525745877.432 0.000 -0.000 -0.010 -0.158 0.045 0.077
1525745877.442 0.000 -0.000 -0.010 -0.158 0.045 0.077
1525745877.452 0.000 -0.000 -0.010 -0.158 0.045 0.077
1525745877.462 0.000 -0.000 -0.009 -0.140 0.054 0.096
1525745877.472 0.000 -0.000 -0.009 -0.140 0.054 0.096
1525745877.482 0.000 -0.000 -0.009 -0.140 0.054 0.096
1525745877.492 0.000 -0.000 -0.009 -0.140 0.054 0.096
1525745877.502 0.000 -0.000 -0.009 -0.140 0.054 0.096
1525745877.512 0.000 -0.000 -0.009 -0.127 0.059 0.107
1525745877.522 0.000 -0.000 -0.009 -0.127 0.059 0.107
1525745877.532 0.000 -0.000 -0.009 -0.127 0.059 0.107
1525745877.542 0.000 -0.000 -0.009 -0.127 0.059 0.107
1525745877.552 0.000 -0.000 -0.009 -0.127 0.059 0.107
1525745877.562 0.000 -0.000 -0.009 -0.117 0.062 0.115
1525745877.572 0.000 -0.000 -0.009 -0.117 0.062 0.115
1525745877.582 0.000 -0.000 -0.009 -0.117 0.062 0.115
1525745877.592 0.000 -0.000 -0.009 -0.117 0.062 0.115
1525745877.602 0.000 -0.000 -0.009 -0.117 0.062 0.115
1525745877.612 0.000 -0.001 -0.009 -0.107 0.060 0.118
1525745877.622 0.000 -0.001 -0.009 -0.107 0.060 0.118
1525745877.632 0.000 -0.001 -0.009 -0.107 0.060 0.118
1525745877.642 0.000 -0.001 -0.009 -0.107 0.060 0.118
1525745877.652 0.000 -0.001 -0.009 -0.107 0.060 0.118
1525745877.662 0.000 -0.001 -0.009 -0.096 0.054 0.117
1525745877.672 0.000 -0.001 -0.009 -0.096 0.054 0.117
1525745877.682 0.000 -0.001 -0.009 -0.096 0.054 0.117
1525745877.692 0.000 -0.001 -0.009 -0.096 0.054 0.117
1525745877.702 0.000 -0.001 -0.009 -0.096 0.054 0.117
1525745877.712 0.000 -0.001 -0.009 -0.089 0.043 0.112
1525745877.722 0.000 -0.001 -0.009 -0.089 0.043 0.112
1525745877.732 0.000 -0.001 -0.009 -0.089 0.043 0.112
1525745877.742 0.000 -0.001 -0.009 -0.089 0.043 0.112
1525745877.752 0.000 -0.001 -0.009 -0.089 0.043 0.112
1525745877.762 0.000 -0.001 -0.009 -0.084 0.029 0.105
1525745877.772 0.000 -0.001 -0.009 -0.084 0.029 0.105
1525745877.782 0.000 -0.001 -0.009 -0.084 0.029 0.105
1525745877.792 0.000 -0.001 -0.009 -0.084 0.029 0.105
1525745877.802 0.000 -0.001 -0.009 -0.084 0.029 0.105
1525745877.812 0.000 -0.001 -0.009 -0.080 0.016 0.099
1525745877.822 0.000 -0.001 -0.009 -0.080 0.016 0.099
1525745877.832 0.000 -0.001 -0.009 -0.080 0.016 0.099
1525745877.842 0.000 -0.001 -0.009 -0.080 0.016 0.099
1525745877.852 0.000 -0.001 -0.009 -0.080 0.016 0.099
1525745877.862 0.000 -0.001 -0.009 -0.069 -0.004 0.088
1525745877.872 0.000 -0.001 -0.009 -0.069 -0.004 0.088
1525745877.882 0.000 -0.001 -0.009 -0.069 -0.004 0.088
1525745877.892 0.000 -0.001 -0.009 -0.069 -0.004 0.088
1525745877.902 0.000 -0.001 -0.009 -0.069 -0.004 0.088
1525745877.912 0.000 -0.001 -0.008 -0.052 -0.028 0.074
1525745877.922 0.000 -0.001 -0.008 -0.052 -0.028 0.074
1525745877.932 0.000 -0.001 -0.008 -0.052 -0.028 0.074
1525745877.942 0.000 -0.001 -0.008 -0.052 -0.028 0.074
1525745877.952 0.000 -0.001 -0.008 -0.052 -0.028 0.074
1525745877.962 -0.000 -0.001 -0.008 -0.035 -0.051 0.060
1525745877.972 -0.000 -0.001 -0.008 -0.035 -0.051 0.060
1525745877.982 -0.000 -0.001 -0.008 -0.035 -0.051 0.060
1525745877.992 -0.000 -0.001 -0.008 -0.035 -0.051 0.060
1525745878.002 -0.000 -0.001 -0.008 -0.035 -0.051 0.060
1525745878.012 -0.000 -0.001 -0.008 -0.016 -0.071 0.050
1525745878.022 -0.000 -0.001 -0.008 -0.016 -0.071 0.050
1525745878.032 -0.000 -0.001 -0.008 -0.016 -0.071 0.050
1525745878.042 -0.000 -0.001 -0.008 -0.016 -0.071 0.050
1525745878.052 -0.000 -0.001 -0.008 -0.016 -0.071 0.050
1525745878.062 -0.000 -0.001 -0.008 -0.008 -0.091 0.037
1525745878.072 -0.000 -0.001 -0.008 -0.008 -0.091 0.037
1525745878.082 -0.000 -0.001 -0.008 -0.008 -0.091 0.037
1525745878.092 -0.000 -0.001 -0.008 -0.008 -0.091 0.037
1525745878.102 -0.000 -0.001 -0.008 -0.008 -0.091 0.037
1525745878.112 -0.000 -0.001 -0.008 -0.003 -0.108 0.026
1525745878.122 -0.000 -0.001 -0.008 -0.003 -0.108 0.026
1525745878.132 -0.000 -0.001 -0.008 -0.003 -0.108 0.026
1525745878.142 -0.000 -0.001 -0.008 -0.003 -0.108 0.026
1525745878.152 -0.000 -0.001 -0.008 -0.003 -0.108 0.026
1525745878.162 -0.000 -0.001 -0.008 0.003 -0.129 0.014
1525745878.172 -0.000 -0.001 -0.008 0.003 -0.129 0.014
1525745878.182 -0.000 -0.001 -0.008 0.003 -0.129 0.014
1525745878.192 -0.000 -0.001 -0.008 0.003 -0.129 0.014
1525745878.202 -0.000 -0.001 -0.008 0.003 -0.129 0.014
1525745878.212 -0.000 -0.001 -0.008 0.014 -0.152 0.003
1525745878.222 -0.000 -0.001 -0.008 0.014 -0.152 0.003
1525745878.232 -0.000 -0.001 -0.008 0.014 -0.152 0.003
1525745878.242 -0.000 -0.001 -0.008 0.014 -0.152 0.003
1525745878.252 -0.000 -0.001 -0.008 0.014 -0.152 0.003
1525745878.262 -0.001 -0.002 -0.008 0.023 -0.176 -0.006
1525745878.272 -0.001 -0.002 -0.008 0.023 -0.176 -0.006
1525745878.282 -0.001 -0.002 -0.008 0.023 -0.176 -0.006
1525745878.292 -0.001 -0.002 -0.008 0.023 -0.176 -0.006
1525745878.302 -0.001 -0.002 -0.008 0.023 -0.176 -0.006
1525745878.312 -0.001 -0.002 -0.008 0.018 -0.199 -0.019
1525745878.322 -0.001 -0.002 -0.008 0.018 -0.199 -0.019
1525745878.332 -0.001 -0.002 -0.008 0.018 -0.199 -0.019
1525745878.342 -0.001 -0.002 -0.008 0.018 -0.199 -0.019
1525745878.352 -0.001 -0.002 -0.008 0.018 -0.199 -0.019
1525745878.362 -0.001 -0.002 -0.008 0.004 -0.218 -0.033
1525745878.372 -0.001 -0.002 -0.008 0.004 -0.218 -0.033
1525745878.382 -0.001 -0.002 -0.008 0.004 -0.218 -0.033
1525745878.392 -0.001 -0.002 -0.008 0.004 -0.218 -0.033
1525745878.402 -0.001 -0.002 -0.008 0.004 -0.218 -0.033
1525745878.412 -0.001 -0.002 -0.008 -0.008 -0.232 -0.045
1525745878.422 -0.001 -0.002 -0.008 -0.008 -0.232 -0.045
1525745878.432 -0.001 -0.002 -0.008 -0.008 -0.232 -0.045
1525745878.442 -0.001 -0.002 -0.008 -0.008 -0.232 -0.045
1525745878.452 -0.001 -0.002 -0.008 -0.008 -0.232 -0.045
1525745878.462 -0.001 -0.002 -0.007 -0.018 -0.244 -0.055
1525745878.472 -0.001 -0.002 -0.007 -0.018 -0.244 -0.055
1525745878.482 -0.001 -0.002 -0.007 -0.018 -0.244 -0.055
1525745878.492 -0.001 -0.002 -0.007 -0.018 -0.244 -0.055
1525745878.502 -0.001 -0.002 -0.007 -0.018 -0.244 -0.055
1525745878.512 -0.001 -0.002 -0.007 -0.019 -0.253 -0.059
1525745878.522 -0.001 -0.002 -0.007 -0.019 -0.253 -0.059
1525745878.532 -0.001 -0.002 -0.007 -0.019 -0.253 -0.059
1525745878.542 -0.001 -0.002 -0.007 -0.019 -0.253 -0.059
1525745878.552 -0.001 -0.002 -0.007 -0.019 -0.253 -0.059
1525745878.562 -0.001 -0.002 -0.007 -0.016 -0.262 -0.060
1525745878.572 -0.001 -0.002 -0.007 -0.016 -0.262 -0.060
1525745878.582 -0.001 -0.002 -0.007 -0.016 -0.262 -0.060
1525745878.592 -0.001 -0.002 -0.007 -0.016 -0.262 -0.060
1525745878.602 -0.001 -0.002 -0.007 -0.016 -0.262 -0.060
1525745878.612 -0.001 -0.002 -0.007 -0.019 -0.269 -0.064
1525745878.622 -0.001 -0.002 -0.007 -0.019 -0.269 -0.064
1525745878.632 -0.001 -0.002 -0.007 -0.019 -0.269 -0.064
1525745878.642 -0.001 -0.002 -0.007 -0.019 -0.269 -0.064
1525745878.652 -0.001 -0.002 -0.007 -0.019 -0.269 -0.064
1525745878.662 -0.001 -0.002 -0.007 -0.026 -0.276 -0.068
1525745878.672 -0.001 -0.002 -0.007 -0.026 -0.276 -0.068
1525745878.682 -0.001 -0.002 -0.007 -0.026 -0.276 -0.068
1525745878.692 -0.001 -0.002 -0.007 -0.026 -0.276 -0.068
1525745878.702 -0.001 -0.002 -0.007 -0.026 -0.276 -0.068
1525745878.712 -0.001 -0.002 -0.007 -0.038 -0.281 -0.074
1525745878.722 -0.001 -0.002 -0.007 -0.038 -0.281 -0.074
1525745878.732 -0.001 -0.002 -0.007 -0.038 -0.281 -0.074
1525745878.742 -0.001 -0.002 -0.007 -0.038 -0.281 -0.074
1525745878.752 -0.001 -0.002 -0.007 -0.038 -0.281 -0.074
1525745878.762 -0.001 -0.002 -0.007 -0.054 -0.278 -0.081
1525745878.772 -0.001 -0.002 -0.007 -0.054 -0.278 -0.081
1525745878.782 -0.001 -0.002 -0.007 -0.054 -0.278 -0.081
1525745878.792 -0.001 -0.002 -0.007 -0.054 -0.278 -0.081
1525745878.802 -0.001 -0.002 -0.007 -0.054 -0.278 -0.081
1525745878.812 -0.001 -0.002 -0.007 -0.070 -0.275 -0.087
1525745878.822 -0.001 -0.002 -0.007 -0.070 -0.275 -0.087
1525745878.832 -0.001 -0.002 -0.007 -0.070 -0.275 -0.087
1525745878.842 -0.001 -0.002 -0.007 -0.070 -0.275 -0.087
1525745878.852 -0.001 -0.002 -0.007 -0.070 -0.275 -0.087
1525745878.862 -0.001 -0.002 -0.007 -0.082 -0.272 -0.091
1525745878.872 -0.001 -0.002 -0.007 -0.082 -0.272 -0.091
1525745878.882 -0.001 -0.002 -0.007 -0.082 -0.272 -0.091
1525745878.892 -0.001 -0.002 -0.007 -0.082 -0.272 -0.091
1525745878.902 -0.001 -0.002 -0.007 -0.082 -0.272 -0.091
1525745878.912 -0.001 -0.002 -0.007 -0.092 -0.271 -0.093
1525745878.922 -0.001 -0.002 -0.007 -0.092 -0.271 -0.093
1525745878.932 -0.001 -0.002 -0.007 -0.092 -0.271 -0.093
1525745878.942 -0.001 -0.002 -0.007 -0.092 -0.271 -0.093
1525745878.952 -0.001 -0.002 -0.007 -0.092 -0.271 -0.093
1525745878.962 -0.001 -0.002 -0.007 -0.098 -0.270 -0.095
1525745878.972 -0.001 -0.002 -0.007 -0.098 -0.270 -0.095
1525745878.982 -0.001 -0.002 -0.007 -0.098 -0.270 -0.095
1525745878.992 -0.001 -0.002 -0.007 -0.098 -0.270 -0.095
1525745879.002 -0.001 -0.002 -0.007 -0.098 -0.270 -0.095
1525745879.012 -0.001 -0.002 -0.007 -0.100 -0.271 -0.094
1525745879.022 -0.001 -0.002 -0.007 -0.100 -0.271 -0.094
1525745879.032 -0.001 -0.002 -0.007 -0.100 -0.271 -0.094
1525745879.042 -0.001 -0.002 -0.007 -0.100 -0.271 -0.094
1525745879.052 -0.001 -0.002 -0.007 -0.100 -0.271 -0.094
1525745879.062 -0.001 -0.002 -0.007 -0.100 -0.271 -0.092
1525745879.072 -0.001 -0.002 -0.007 -0.100 -0.271 -0.092
1525745879.082 -0.001 -0.002 -0.007 -0.100 -0.271 -0.092
1525745879.092 -0.001 -0.002 -0.007 -0.100 -0.271 -0.092
1525745879.102 -0.001 -0.002 -0.007 -0.100 -0.271 -0.092
1525745879.112 -0.001 -0.002 -0.007 -0.099 -0.269 -0.089
1525745879.122 -0.001 -0.002 -0.007 -0.099 -0.269 -0.089
1525745879.132 -0.001 -0.002 -0.007 -0.099 -0.269 -0.089
1525745879.142 -0.001 -0.002 -0.007 -0.099 -0.269 -0.089
1525745879.152 -0.001 -0.002 -0.007 -0.099 -0.269 -0.089
1525745879.162 -0.001 -0.002 -0.007 -0.098 -0.266 -0.085
1525745879.172 -0.001 -0.002 -0.007 -0.098 -0.266 -0.085
1525745879.182 -0.001 -0.002 -0.007 -0.098 -0.266 -0.085
1525745879.192 -0.001 -0.002 -0.007 -0.098 -0.266 -0.085
1525745879.202 -0.001 -0.002 -0.007 -0.098 -0.266 -0.085
1525745879.212 -0.001 -0.002 -0.007 -0.093 -0.263 -0.081
1525745879.222 -0.001 -0.002 -0.007 -0.093 -0.263 -0.081
1525745879.232 -0.001 -0.002 -0.007 -0.093 -0.263 -0.081
1525745879.242 -0.001 -0.002 -0.007 -0.093 -0.263 -0.081
1525745879.252 -0.001 -0.002 -0.007 -0.093 -0.263 -0.081
1525745879.262 -0.001 -0.002 -0.007 -0.085 -0.263 -0.076
1525745879.272 -0.001 -0.002 -0.007 -0.085 -0.263 -0.076
1525745879.282 -0.001 -0.002 -0.007 -0.085 -0.263 -0.076
1525745879.292 -0.001 -0.002 -0.007 -0.085 -0.263 -0.076
1525745879.302 -0.001 -0.002 -0.007 -0.085 -0.263 -0.076
1525745879.312 -0.001 -0.002 -0.007 -0.073 -0.265 -0.069
1525745879.322 -0.001 -0.002 -0.007 -0.073 -0.265 -0.069
1525745879.332 -0.001 -0.002 -0.007 -0.073 -0.265 -0.069
1525745879.342 -0.001 -0.002 -0.007 -0.073 -0.265 -0.069
1525745879.352 -0.001 -0.002 -0.007 -0.073 -0.265 -0.069
1525745879.362 -0.001 -0.002 -0.007 -0.058 -0.267 -0.061
1525745879.372 -0.001 -0.002 -0.007 -0.058 -0.267 -0.061
1525745879.382 -0.001 -0.002 -0.007 -0.058 -0.267 -0.061
1525745879.392 -0.001 -0.002 -0.007 -0.058 -0.267 -0.061
1525745879.402 -0.001 -0.002 -0.007 -0.058 -0.267 -0.061
1525745879.412 -0.002 -0.002 -0.007 -0.044 -0.265 -0.053
1525745879.422 -0.002 -0.002 -0.007 -0.044 -0.265 -0.053
1525745879.432 -0.002 -0.002 -0.007 -0.044 -0.265 -0.053
1525745879.442 -0.002 -0.002 -0.007 -0.044 -0.265 -0.053
1525745879.452 -0.002 -0.002 -0.007 -0.044 -0.265 -0.053
1525745879.462 -0.002 -0.002 -0.007 -0.037 -0.260 -0.049
1525745879.472 -0.002 -0.002 -0.007 -0.037 -0.260 -0.049
1525745879.482 -0.002 -0.002 -0.007 -0.037 -0.260 -0.049
1525745879.492 -0.002 -0.002 -0.007 -0.037 -0.260 -0.049
1525745879.502 -0.002 -0.002 -0.007 -0.037 -0.260 -0.049
1525745879.512 -0.002 -0.002 -0.007 -0.032 -0.254 -0.047
1525745879.522 -0.002 -0.002 -0.007 -0.032 -0.254 -0.047
1525745879.532 -0.002 -0.002 -0.007 -0.032 -0.254 -0.047
1525745879.542 -0.002 -0.002 -0.007 -0.032 -0.254 -0.047
1525745879.552 -0.002 -0.002 -0.007 -0.032 -0.254 -0.047
1525745879.562 -0.002 -0.002 -0.007 -0.026 -0.246 -0.046
1525745879.572 -0.002 -0.002 -0.007 -0.026 -0.246 -0.046
1525745879.582 -0.002 -0.002 -0.007 -0.026 -0.246 -0.046
1525745879.592 -0.002 -0.002 -0.007 -0.026 -0.246 -0.046
1525745879.602 -0.002 -0.002 -0.007 -0.026 -0.246 -0.046
1525745879.612 -0.002 -0.002 -0.007 -0.018 -0.237 -0.044
1525745879.622 -0.002 -0.002 -0.007 -0.018 -0.237 -0.044
1525745879.632 -0.002 -0.002 -0.007 -0.018 -0.237 -0.044
1525745879.642 -0.002 -0.002 -0.007 -0.018 -0.237 -0.044
1525745879.652 -0.002 -0.002 -0.007 -0.018 -0.237 -0.044
1525745879.662 -0.002 -0.002 -0.007 -0.009 -0.228 -0.041
1525745879.672 -0.002 -0.002 -0.007 -0.009 -0.228 -0.041
1525745879.682 -0.002 -0.002 -0.007 -0.009 -0.228 -0.041
1525745879.692 -0.002 -0.002 -0.007 -0.009 -0.228 -0.041
1525745879.702 -0.002 -0.002 -0.007 -0.009 -0.228 -0.041
1525745879.712 -0.002 -0.001 -0.007 0.002 -0.219 -0.037
1525745879.722 -0.002 -0.001 -0.007 0.002 -0.219 -0.037
1525745879.732 -0.002 -0.001 -0.007 0.002 -0.219 -0.037
1525745879.742 -0.002 -0.001 -0.007 0.002 -0.219 -0.037
1525745879.752 -0.002 -0.001 -0.007 0.002 -0.219 -0.037
1525745879.762 -0.002 -0.001 -0.007 0.009 -0.210 -0.034
1525745879.772 -0.002 -0.001 -0.007 0.009 -0.210 -0.034
1525745879.782 -0.002 -0.001 -0.007 0.009 -0.210 -0.034
1525745879.792 -0.002 -0.001 -0.007 0.009 -0.210 -0.034
1525745879.802 -0.002 -0.001 -0.007 0.009 -0.210 -0.034
1525745879.812 -0.002 -0.001 -0.007 0.014 -0.199 -0.033
1525745879.822 -0.002 -0.001 -0.007 0.014 -0.199 -0.033
1525745879.832 -0.002 -0.001 -0.007 0.014 -0.199 -0.033
1525745879.842 -0.002 -0.001 -0.007 0.014 -0.199 -0.033
1525745879.852 -0.002 -0.001 -0.007 0.014 -0.199 -0.033
1525745879.862 -0.003 -0.001 -0.007 0.019 -0.188 -0.031
1525745879.872 -0.003 -0.001 -0.007 0.019 -0.188 -0.031
1525745879.882 -0.003 -0.001 -0.007 0.019 -0.188 -0.031
1525745879.892 -0.003 -0.001 -0.007 0.019 -0.188 -0.031
1525745879.902 -0.003 -0.001 -0.007 0.019 -0.188 -0.031
1525745879.912 -0.003 -0.001 -0.007 0.024 -0.175 -0.029
1525745879.922 -0.003 -0.001 -0.007 0.024 -0.175 -0.029
1525745879.932 -0.003 -0.001 -0.007 0.024 -0.175 -0.029
1525745879.942 -0.003 -0.001 -0.007 0.024 -0.175 -0.029
1525745879.952 -0.003 -0.001 -0.007 0.024 -0.175 -0.029
1525745879.962 -0.003 -0.001 -0.007 0.027 -0.160 -0.025
1525745879.972 -0.003 -0.001 -0.007 0.027 -0.160 -0.025
1525745879.982 -0.003 -0.001 -0.007 0.027 -0.160 -0.025
1525745879.992 -0.003 -0.001 -0.007 0.027 -0.160 -0.025
1525745880.002 -0.003 -0.001 -0.007 0.027 -0.160 -0.025
1525745880.012 -0.003 -0.001 -0.007 0.028 -0.146 -0.022
1525745880.022 -0.003 -0.001 -0.007 0.028 -0.146 -0.022
1525745880.032 -0.003 -0.001 -0.007 0.028 -0.146 -0.022
1525745880.042 -0.003 -0.001 -0.007 0.028 -0.146 -0.022
1525745880.052 -0.003 -0.001 -0.007 0.028 -0.146 -0.022
1525745880.062 -0.003 -0.001 -0.007 0.022 -0.138 -0.023
1525745880.072 -0.003 -0.001 -0.007 0.022 -0.138 -0.023
1525745880.082 -0.003 -0.001 -0.007 0.022 -0.138 -0.023
1525745880.092 -0.003 -0.001 -0.007 0.022 -0.138 -0.023
1525745880.102 -0.003 -0.001 -0.007 0.022 -0.138 -0.023
1525745880.112 -0.003 -0.001 -0.007 0.010 -0.135 -0.028
1525745880.122 -0.003 -0.001 -0.007 0.010 -0.135 -0.028
1525745880.132 -0.003 -0.001 -0.007 0.010 -0.135 -0.028
1525745880.142 -0.003 -0.001 -0.007 0.010 -0.135 -0.028
1525745880.152 -0.003 -0.001 -0.007 0.010 -0.135 -0.028
1525745880.162 -0.003 -0.001 -0.007 -0.002 -0.140 -0.036
1525745880.172 -0.003 -0.001 -0.007 -0.002 -0.140 -0.036
1525745880.182 -0.003 -0.001 -0.007 -0.002 -0.140 -0.036
1525745880.192 -0.003 -0.001 -0.007 -0.002 -0.140 -0.036
1525745880.202 -0.003 -0.001 -0.007 -0.002 -0.140 -0.036
1525745880.212 -0.003 -0.001 -0.007 -0.018 -0.155 -0.048
1525745880.222 -0.003 -0.001 -0.007 -0.018 -0.155 -0.048
1525745880.232 -0.003 -0.001 -0.007 -0.018 -0.155 -0.048
1525745880.242 -0.003 -0.001 -0.007 -0.018 -0.155 -0.048
1525745880.252 -0.003 -0.001 -0.007 -0.018 -0.155 -0.048
1525745880.262 -0.003 -0.001 -0.007 -0.039 -0.176 -0.064
1525745880.272 -0.003 -0.001 -0.007 -0.039 -0.176 -0.064
1525745880.282 -0.003 -0.001 -0.007 -0.039 -0.176 -0.064
1525745880.292 -0.003 -0.001 -0.007 -0.039 -0.176 -0.064
1525745880.302 -0.003 -0.001 -0.007 -0.039 -0.176 -0.064
1525745880.312 -0.003 -0.001 -0.008 -0.060 -0.200 -0.081
1525745880.322 -0.003 -0.001 -0.008 -0.060 -0.200 -0.081
1525745880.332 -0.003 -0.001 -0.008 -0.060 -0.200 -0.081
1525745880.342 -0.003 -0.001 -0.008 -0.060 -0.200 -0.081
1525745880.352 -0.003 -0.001 -0.008 -0.060 -0.200 -0.081
1525745880.362 -0.003 -0.001 -0.008 -0.069 -0.230 -0.101
1525745880.372 -0.003 -0.001 -0.008 -0.069 -0.230 -0.101
1525745880.382 -0.003 -0.001 -0.008 -0.069 -0.230 -0.101
1525745880.392 -0.003 -0.001 -0.008 -0.069 -0.230 -0.101
1525745880.402 -0.003 -0.001 -0.008 -0.069 -0.230 -0.101
1525745880.412 -0.003 -0.002 -0.008 -0.067 -0.256 -0.119
1525745880.422 -0.003 -0.002 -0.008 -0.067 -0.256 -0.119
1525745880.432 -0.003 -0.002 -0.008 -0.067 -0.256 -0.119
1525745880.442 -0.003 -0.002 -0.008 -0.067 -0.256 -0.119
1525745880.452 -0.003 -0.002 -0.008 -0.067 -0.256 -0.119
1525745880.462 -0.003 -0.002 -0.008 -0.057 -0.279 -0.134
1525745880.472 -0.003 -0.002 -0.008 -0.057 -0.279 -0.134
1525745880.482 -0.003 -0.002 -0.008 -0.057 -0.279 -0.134
1525745880.492 -0.003 -0.002 -0.008 -0.057 -0.279 -0.134
1525745880.502 -0.003 -0.002 -0.008 -0.057 -0.279 -0.134
1525745880.512 -0.003 -0.002 -0.008 -0.053 -0.297 -0.144
1525745880.522 -0.003 -0.002 -0.008 -0.053 -0.297 -0.144
1525745880.532 -0.003 -0.002 -0.008 -0.053 -0.297 -0.144
1525745880.542 -0.003 -0.002 -0.008 -0.053 -0.297 -0.144
1525745880.552 -0.003 -0.002 -0.008 -0.053 -0.297 -0.144
1525745880.562 -0.003 -0.002 -0.008 -0.062 -0.316 -0.154
1525745880.572 -0.003 -0.002 -0.008 -0.062 -0.316 -0.154
1525745880.582 -0.003 -0.002 -0.008 -0.062 -0.316 -0.154
1525745880.592 -0.003 -0.002 -0.008 -0.062 -0.316 -0.154
1525745880.602 -0.003 -0.002 -0.008 -0.062 -0.316 -0.154
1525745880.612 -0.003 -0.002 -0.008 -0.074 -0.336 -0.166
1525745880.622 -0.003 -0.002 -0.008 -0.074 -0.336 -0.166
1525745880.632 -0.003 -0.002 -0.008 -0.074 -0.336 -0.166
1525745880.642 -0.003 -0.002 -0.008 -0.074 -0.336 -0.166
1525745880.652 -0.003 -0.002 -0.008 -0.074 -0.336 -0.166
1525745880.662 -0.003 -0.002 -0.008 -0.082 -0.353 -0.175
1525745880.672 -0.003 -0.002 -0.008 -0.082 -0.353 -0.175
1525745880.682 -0.003 -0.002 -0.008 -0.082 -0.353 -0.175
1525745880.692 -0.003 -0.002 -0.008 -0.082 -0.353 -0.175
1525745880.702 -0.003 -0.002 -0.008 -0.082 -0.353 -0.175
1525745880.712 -0.003 -0.002 -0.008 -0.070 -0.375 -0.182
1525745880.722 -0.003 -0.002 -0.008 -0.070 -0.375 -0.182
1525745880.732 -0.003 -0.002 -0.008 -0.070 -0.375 -0.182
1525745880.742 -0.003 -0.002 -0.008 -0.070 -0.375 -0.182
1525745880.752 -0.003 -0.002 -0.008 -0.070 -0.375 -0.182
1525745880.762 -0.003 -0.002 -0.009 -0.018 -0.424 -0.193
1525745880.772 -0.003 -0.002 -0.009 -0.018 -0.424 -0.193
1525745880.782 -0.003 -0.002 -0.009 -0.018 -0.424 -0.193
1525745880.792 -0.003 -0.002 -0.009 -0.018 -0.424 -0.193
1525745880.802 -0.003 -0.002 -0.009 -0.018 -0.424 -0.193
1525745880.812 -0.003 -0.002 -0.009 0.007 -0.459 -0.201
1525745880.822 -0.003 -0.002 -0.009 0.007 -0.459 -0.201
1525745880.832 -0.003 -0.002 -0.009 0.007 -0.459 -0.201
1525745880.842 -0.003 -0.002 -0.009 0.007 -0.459 -0.201
1525745880.852 -0.003 -0.002 -0.009 0.007 -0.459 -0.201
1525745880.862 -0.003 -0.002 -0.009 -0.020 -0.458 -0.200
1525745880.872 -0.003 -0.002 -0.009 -0.020 -0.458 -0.200
1525745880.882 -0.003 -0.002 -0.009 -0.020 -0.458 -0.200
1525745880.892 -0.003 -0.002 -0.009 -0.020 -0.458 -0.200
1525745880.902 -0.003 -0.002 -0.009 -0.020 -0.458 -0.200
1525745880.912 -0.003 -0.002 -0.009 -0.052 -0.445 -0.194
1525745880.922 -0.003 -0.002 -0.009 -0.052 -0.445 -0.194
1525745880.932 -0.003 -0.002 -0.009 -0.052 -0.445 -0.194
1525745880.942 -0.003 -0.002 -0.009 -0.052 -0.445 -0.194
1525745880.952 -0.003 -0.002 -0.009 -0.052 -0.445 -0.194
1525745880.962 -0.003 -0.002 -0.008 -0.100 -0.416 -0.185
1525745880.972 -0.003 -0.002 -0.008 -0.100 -0.416 -0.185
1525745880.982 -0.003 -0.002 -0.008 -0.100 -0.416 -0.185
1525745880.992 -0.003 -0.002 -0.008 -0.100 -0.416 -0.185
1525745881.002 -0.003 -0.002 -0.008 -0.100 -0.416 -0.185
1525745881.012 -0.004 -0.002 -0.007 -0.172 -0.391 -0.177
1525745881.022 -0.004 -0.002 -0.007 -0.172 -0.391 -0.177
1525745881.032 -0.004 -0.002 -0.007 -0.172 -0.391 -0.177
1525745881.042 -0.004 -0.002 -0.007 -0.172 -0.391 -0.177
1525745881.052 -0.004 -0.002 -0.007 -0.172 -0.391 -0.177
1525745881.062 -0.004 -0.002 -0.007 -0.192 -0.362 -0.167
1525745881.072 -0.004 -0.002 -0.007 -0.192 -0.362 -0.167
1525745881.082 -0.004 -0.002 -0.007 -0.192 -0.362 -0.167
1525745881.092 -0.004 -0.002 -0.007 -0.192 -0.362 -0.167
1525745881.102 -0.004 -0.002 -0.007 -0.192 -0.362 -0.167
1525745881.112 -0.004 -0.002 -0.007 -0.191 -0.356 -0.161
1525745881.122 -0.004 -0.002 -0.007 -0.191 -0.356 -0.161
1525745881.132 -0.004 -0.002 -0.007 -0.191 -0.356 -0.161
1525745881.142 -0.004 -0.002 -0.007 -0.191 -0.356 -0.161
1525745881.152 -0.004 -0.002 -0.007 -0.191 -0.356 -0.161
1525745881.162 -0.004 -0.002 -0.007 -0.191 -0.342 -0.152
1525745881.172 -0.004 -0.002 -0.007 -0.191 -0.342 -0.152
1525745881.182 -0.004 -0.002 -0.007 -0.191 -0.342 -0.152
1525745881.192 -0.004 -0.002 -0.007 -0.191 -0.342 -0.152
1525745881.202 -0.004 -0.002 -0.007 -0.191 -0.342 -0.152
1525745881.212 -0.003 -0.002 -0.007 -0.179 -0.313 -0.145
1525745881.222 -0.003 -0.002 -0.007 -0.179 -0.313 -0.145
1525745881.232 -0.003 -0.002 -0.007 -0.179 -0.313 -0.145
1525745881.242 -0.003 -0.002 -0.007 -0.179 -0.313 -0.145
1525745881.252 -0.003 -0.002 -0.007 -0.179 -0.313 -0.145
1525745881.262 -0.003 -0.002 -0.007 -0.162 -0.290 -0.138
1525745881.272 -0.003 -0.002 -0.007 -0.162 -0.290 -0.138
1525745881.282 -0.003 -0.002 -0.007 -0.162 -0.290 -0.138
1525745881.292 -0.003 -0.002 -0.007 -0.162 -0.290 -0.138
1525745881.302 -0.003 -0.002 -0.007 -0.162 -0.290 -0.138
1525745881.312 -0.003 -0.002 -0.007 -0.136 -0.268 -0.134
1525745881.322 -0.003 -0.002 -0.007 -0.136 -0.268 -0.134
1525745881.332 -0.003 -0.002 -0.007 -0.136 -0.268 -0.134
1525745881.342 -0.003 -0.002 -0.007 -0.136 -0.268 -0.134
1525745881.352 -0.003 -0.002 -0.007 -0.136 -0.268 -0.134
1525745881.362 -0.003 -0.002 -0.007 -0.114 -0.243 -0.134
1525745881.372 -0.003 -0.002 -0.007 -0.114 -0.243 -0.134
1525745881.382 -0.003 -0.002 -0.007 -0.114 -0.243 -0.134
1525745881.392 -0.003 -0.002 -0.007 -0.114 -0.243 -0.134
1525745881.402 -0.003 -0.002 -0.007 -0.114 -0.243 -0.134
1525745881.412 -0.002 -0.002 -0.007 -0.095 -0.223 -0.134
1525745881.422 -0.002 -0.002 -0.007 -0.095 -0.223 -0.134
1525745881.432 -0.002 -0.002 -0.007 -0.095 -0.223 -0.134
1525745881.442 -0.002 -0.002 -0.007 -0.095 -0.223 -0.134
1525745881.452 -0.002 -0.002 -0.007 -0.095 -0.223 -0.134
1525745881.462 -0.002 -0.002 -0.007 -0.072 -0.192 -0.140
1525745881.472 -0.002 -0.002 -0.007 -0.072 -0.192 -0.140
1525745881.482 -0.002 -0.002 -0.007 -0.072 -0.192 -0.140
1525745881.492 -0.002 -0.002 -0.007 -0.072 -0.192 -0.140
1525745881.502 -0.002 -0.002 -0.007 -0.072 -0.192 -0.140
1525745881.512 -0.001 -0.002 -0.008 -0.041 -0.161 -0.154
1525745881.522 -0.001 -0.002 -0.008 -0.041 -0.161 -0.154
1525745881.532 -0.001 -0.002 -0.008 -0.041 -0.161 -0.154
1525745881.542 -0.001 -0.002 -0.008 -0.041 -0.161 -0.154
1525745881.552 -0.001 -0.002 -0.008 -0.041 -0.161 -0.154
1525745881.562 -0.001 -0.002 -0.008 -0.010 -0.133 -0.170
1525745881.572 -0.001 -0.002 -0.008 -0.010 -0.133 -0.170
1525745881.582 -0.001 -0.002 -0.008 -0.010 -0.133 -0.170
1525745881.592 -0.001 -0.002 -0.008 -0.010 -0.133 -0.170
1525745881.602 -0.001 -0.002 -0.008 -0.010 -0.133 -0.170
1525745881.612 -0.001 -0.002 -0.008 0.018 -0.103 -0.190
1525745881.622 -0.001 -0.002 -0.008 0.018 -0.103 -0.190
1525745881.632 -0.001 -0.002 -0.008 0.018 -0.103 -0.190
1525745881.642 -0.001 -0.002 -0.008 0.018 -0.103 -0.190
1525745881.652 -0.001 -0.002 -0.008 0.018 -0.103 -0.190
1525745881.662 -0.000 -0.002 -0.008 0.043 -0.074 -0.212
1525745881.672 -0.000 -0.002 -0.008 0.043 -0.074 -0.212
1525745881.682 -0.000 -0.002 -0.008 0.043 -0.074 -0.212
1525745881.692 -0.000 -0.002 -0.008 0.043 -0.074 -0.212
1525745881.702 -0.000 -0.002 -0.008 0.043 -0.074 -0.212
1525745881.712 0.000 -0.003 -0.008 0.061 -0.059 -0.231
1525745881.722 0.000 -0.003 -0.008 0.061 -0.059 -0.231
1525745881.732 0.000 -0.003 -0.008 0.061 -0.059 -0.231
1525745881.742 0.000 -0.003 -0.008 0.061 -0.059 -0.231
1525745881.752 0.000 -0.003 -0.008 0.061 -0.059 -0.231
1525745881.762 0.000 -0.003 -0.008 0.069 -0.056 -0.243
1525745881.772 0.000 -0.003 -0.008 0.069 -0.056 -0.243
1525745881.782 0.000 -0.003 -0.008 0.069 -0.056 -0.243
1525745881.792 0.000 -0.003 -0.008 0.069 -0.056 -0.243
1525745881.802 0.000 -0.003 -0.008 0.069 -0.056 -0.243
1525745881.812 0.000 -0.003 -0.008 0.072 -0.059 -0.252
1525745881.822 0.000 -0.003 -0.008 0.072 -0.059 -0.252
1525745881.832 0.000 -0.003 -0.008 0.072 -0.059 -0.252
1525745881.842 0.000 -0.003 -0.008 0.072 -0.059 -0.252
1525745881.852 0.000 -0.003 -0.008 0.072 -0.059 -0.252
1525745881.862 0.000 -0.003 -0.008 0.076 -0.066 -0.260
1525745881.872 0.000 -0.003 -0.008 0.076 -0.066 -0.260
1525745881.882 0.000 -0.003 -0.008 0.076 -0.066 -0.260
1525745881.892 0.000 -0.003 -0.008 0.076 -0.066 -0.260
1525745881.902 0.000 -0.003 -0.008 0.076 -0.066 -0.260
1525745881.912 0.000 -0.003 -0.008 0.075 -0.073 -0.263
1525745881.922 0.000 -0.003 -0.008 0.075 -0.073 -0.263
1525745881.932 0.000 -0.003 -0.008 0.075 -0.073 -0.263
1525745881.942 0.000 -0.003 -0.008 0.075 -0.073 -0.263
1525745881.952 0.000 -0.003 -0.008 0.075 -0.073 -0.263
1525745881.962 0.000 -0.003 -0.008 0.075 -0.076 -0.263
1525745881.972 0.000 -0.003 -0.008 0.075 -0.076 -0.263
1525745881.982 0.000 -0.003 -0.008 0.075 -0.076 -0.263
1525745881.992 0.000 -0.003 -0.008 0.075 -0.076 -0.263
1525745882.002 0.000 -0.003 -0.008 0.075 -0.076 -0.263
1525745882.012 0.000 -0.003 -0.008 0.073 -0.079 -0.258
1525745882.022 0.000 -0.003 -0.008 0.073 -0.079 -0.258
1525745882.032 0.000 -0.003 -0.008 0.073 -0.079 -0.258
1525745882.042 0.000 -0.003 -0.008 0.073 -0.079 -0.258
1525745882.052 0.000 -0.003 -0.008 0.073 -0.079 -0.258
1525745882.062 0.000 -0.002 -0.009 0.066 -0.083 -0.249
1525745882.072 0.000 -0.002 -0.009 0.066 -0.083 -0.249
1525745882.082 0.000 -0.002 -0.009 0.066 -0.083 -0.249
1525745882.092 0.000 -0.002 -0.009 0.066 -0.083 -0.249
1525745882.102 0.000 -0.002 -0.009 0.066 -0.083 -0.249
1525745882.112 0.000 -0.002 -0.009 0.058 -0.082 -0.235
1525745882.122 0.000 -0.002 -0.009 0.058 -0.082 -0.235
1525745882.132 0.000 -0.002 -0.009 0.058 -0.082 -0.235
1525745882.142 0.000 -0.002 -0.009 0.058 -0.082 -0.235
1525745882.152 0.000 -0.002 -0.009 0.058 -0.082 -0.235
1525745882.162 -0.000 -0.002 -0.009 0.046 -0.077 -0.213
1525745882.172 -0.000 -0.002 -0.009 0.046 -0.077 -0.213
1525745882.182 -0.000 -0.002 -0.009 0.046 -0.077 -0.213
1525745882.192 -0.000 -0.002 -0.009 0.046 -0.077 -0.213
1525745882.202 -0.000 -0.002 -0.009 0.046 -0.077 -0.213
1525745882.212 -0.000 -0.002 -0.009 0.035 -0.069 -0.188
1525745882.222 -0.000 -0.002 -0.009 0.035 -0.069 -0.188
1525745882.232 -0.000 -0.002 -0.009 0.035 -0.069 -0.188
1525745882.242 -0.000 -0.002 -0.009 0.035 -0.069 -0.188
1525745882.252 -0.000 -0.002 -0.009 0.035 -0.069 -0.188
1525745882.262 -0.001 -0.002 -0.009 0.027 -0.060 -0.162
1525745882.272 -0.001 -0.002 -0.009 0.027 -0.060 -0.162
1525745882.282 -0.001 -0.002 -0.009 0.027 -0.060 -0.162
1525745882.292 -0.001 -0.002 -0.009 0.027 -0.060 -0.162
1525745882.302 -0.001 -0.002 -0.009 0.027 -0.060 -0.162
1525745882.312 -0.001 -0.002 -0.009 0.026 -0.057 -0.142
1525745882.322 -0.001 -0.002 -0.009 0.026 -0.057 -0.142
1525745882.332 -0.001 -0.002 -0.009 0.026 -0.057 -0.142
1525745882.342 -0.001 -0.002 -0.009 0.026 -0.057 -0.142
1525745882.352 -0.001 -0.002 -0.009 0.026 -0.057 -0.142
1525745882.362 -0.001 -0.002 -0.009 0.033 -0.049 -0.123
1525745882.372 -0.001 -0.002 -0.009 0.033 -0.049 -0.123
1525745882.382 -0.001 -0.002 -0.009 0.033 -0.049 -0.123
1525745882.392 -0.001 -0.002 -0.009 0.033 -0.049 -0.123
1525745882.402 -0.001 -0.002 -0.009 0.033 -0.049 -0.123
1525745882.412 -0.001 -0.002 -0.009 0.030 -0.040 -0.101
1525745882.422 -0.001 -0.002 -0.009 0.030 -0.040 -0.101
1525745882.432 -0.001 -0.002 -0.009 0.030 -0.040 -0.101
1525745882.442 -0.001 -0.002 -0.009 0.030 -0.040 -0.101
1525745882.452 -0.001 -0.002 -0.009 0.030 -0.040 -0.101
1525745882.462 -0.001 -0.002 -0.009 0.038 -0.025 -0.078
1525745882.472 -0.001 -0.002 -0.009 0.038 -0.025 -0.078
1525745882.482 -0.001 -0.002 -0.009 0.038 -0.025 -0.078
1525745882.492 -0.001 -0.002 -0.009 0.038 -0.025 -0.078
1525745882.502 -0.001 -0.002 -0.009 0.038 -0.025 -0.078
1525745882.512 -0.002 -0.002 -0.009 0.056 -0.006 -0.059
1525745882.522 -0.002 -0.002 -0.009 0.056 -0.006 -0.059
1525745882.532 -0.002 -0.002 -0.009 0.056 -0.006 -0.059
1525745882.542 -0.002 -0.002 -0.009 0.056 -0.006 -0.059
1525745882.552 -0.002 -0.002 -0.009 0.056 -0.006 -0.059
1525745882.562 -0.002 -0.002 -0.009 0.084 0.013 -0.042
1525745882.572 -0.002 -0.002 -0.009 0.084 0.013 -0.042
1525745882.582 -0.002 -0.002 -0.009 0.084 0.013 -0.042
1525745882.592 -0.002 -0.002 -0.009 0.084 0.013 -0.042
1525745882.602 -0.002 -0.002 -0.009 0.084 0.013 -0.042
1525745882.612 -0.002 -0.002 -0.009 0.107 0.028 -0.024
1525745882.622 -0.002 -0.002 -0.009 0.107 0.028 -0.024
1525745882.632 -0.002 -0.002 -0.009 0.107 0.028 -0.024
1525745882.642 -0.002 -0.002 -0.009 0.107 0.028 -0.024
1525745882.652 -0.002 -0.002 -0.009 0.107 0.028 -0.024
1525745882.662 -0.003 -0.002 -0.009 0.131 0.044 -0.006
1525745882.672 -0.003 -0.002 -0.009 0.131 0.044 -0.006
1525745882.682 -0.003 -0.002 -0.009 0.131 0.044 -0.006
1525745882.692 -0.003 -0.002 -0.009 0.131 0.044 -0.006
1525745882.702 -0.003 -0.002 -0.009 0.131 0.044 -0.006
1525745882.712 -0.003 -0.002 -0.008 0.156 0.063 0.012
1525745882.722 -0.003 -0.002 -0.008 0.156 0.063 0.012
1525745882.732 -0.003 -0.002 -0.008 0.156 0.063 0.012
1525745882.742 -0.003 -0.002 -0.008 0.156 0.063 0.012
1525745882.752 -0.003 -0.002 -0.008 0.156 0.063 0.012
1525745882.762 -0.003 -0.002 -0.008 0.173 0.074 0.028
1525745882.772 -0.003 -0.002 -0.008 0.173 0.074 0.028
1525745882.782 -0.003 -0.002 -0.008 0.173 0.074 0.028
1525745882.792 -0.003 -0.002 -0.008 0.173 0.074 0.028
1525745882.802 -0.003 -0.002 -0.008 0.173 0.074 0.028
1525745882.812 -0.003 -0.002 -0.008 0.195 0.079 0.037
1525745882.822 -0.003 -0.002 -0.008 0.195 0.079 0.037
1525745882.832 -0.003 -0.002 -0.008 0.195 0.079 0.037
1525745882.842 -0.003 -0.002 -0.008 0.195 0.079 0.037
1525745882.852 -0.003 -0.002 -0.008 0.195 0.079 0.037
1525745882.862 -0.003 -0.002 -0.008 0.218 0.076 0.039
1525745882.872 -0.003 -0.002 -0.008 0.218 0.076 0.039
1525745882.882 -0.003 -0.002 -0.008 0.218 0.076 0.039
1525745882.892 -0.003 -0.002 -0.008 0.218 0.076 0.039
1525745882.902 -0.003 -0.002 -0.008 0.218 0.076 0.039
1525745882.912 -0.004 -0.001 -0.008 0.233 0.063 0.038
1525745882.922 -0.004 -0.001 -0.008 0.233 0.063 0.038
1525745882.932 -0.004 -0.001 -0.008 0.233 0.063 0.038
1525745882.942 -0.004 -0.001 -0.008 0.233 0.063 0.038
1525745882.952 -0.004 -0.001 -0.008 0.233 0.063 0.038
1525745882.962 -0.004 -0.001 -0.008 0.239 0.048 0.038
1525745882.972 -0.004 -0.001 -0.008 0.239 0.048 0.038
1525745882.982 -0.004 -0.001 -0.008 0.239 0.048 0.038
1525745882.992 -0.004 -0.001 -0.008 0.239 0.048 0.038
1525745883.002 -0.004 -0.001 -0.008 0.239 0.048 0.038
1525745883.012 -0.004 -0.001 -0.008 0.245 0.036 0.039
1525745883.022 -0.004 -0.001 -0.008 0.245 0.036 0.039
1525745883.032 -0.004 -0.001 -0.008 0.245 0.036 0.039
1525745883.042 -0.004 -0.001 -0.008 0.245 0.036 0.039
1525745883.052 -0.004 -0.001 -0.008 0.245 0.036 0.039
1525745883.062 -0.004 -0.001 -0.008 0.249 0.027 0.040
1525745883.072 -0.004 -0.001 -0.008 0.249 0.027 0.040
1525745883.082 -0.004 -0.001 -0.008 0.249 0.027 0.040
1525745883.092 -0.004 -0.001 -0.008 0.249 0.027 0.040
1525745883.102 -0.004 -0.001 -0.008 0.249 0.027 0.040
